1352 100
， -0.19251664 -0.08070263 0.25947142 0.34625033 0.17426004 0.009130246 0.3358161 0.06812352 0.32070982 -0.17531227 -0.15534382 -0.26427907 -0.026887154 0.057620756 0.016319595 0.09016623 -0.34453753 -0.09085683 -0.45450446 0.17960247 -0.13087922 -0.13456339 0.20283107 -0.34016234 0.0456166 -0.41058025 -0.025775766 -0.31356797 0.041018836 -0.075265385 0.2833256 0.038004708 0.0037857275 -0.06860126 -0.14114544 0.21790937 0.049573466 -0.33884907 0.26866537 -0.29606414 0.18108594 -0.29808685 -0.022445872 -0.120135166 0.13060075 -0.26107663 0.42257154 -0.091510795 -0.039514933 -0.17394237 -0.028341971 0.014921629 -0.023611553 0.13423811 -0.10735424 0.09033564 -0.2930228 0.13646762 -0.07013119 -0.10117727 -0.16675864 0.5937745 0.037539687 -0.043238256 0.13368754 0.21954474 0.0629457 0.093606025 0.123233885 0.16221981 0.39465684 -0.03155132 -0.08940048 0.07423637 0.045305528 -1.1723263 -0.014427927 0.33926204 0.27520207 0.020676916 0.33691546 0.12988973 -0.020439606 0.2529626 0.12636098 0.14642327 0.15683192 0.24562342 -0.27069154 -0.0005028988 0.18856488 -0.028413702 -0.24995238 -0.0563601 -0.2273322 0.17890279 -0.11355831 0.051106997 -0.2184403 0.053408537
子 -0.11593264 -0.101440385 -0.03525707 0.1806516 0.1428812 -0.08991284 -0.14659502 0.10853747 -0.05470274 -0.45542324 0.009583983 0.23452377 0.34213412 0.26453617 -0.22971344 -0.10675217 0.1776811 -0.007208409 0.27709433 0.21700536 -0.04586362 -0.09754896 0.103384264 -0.10605909 -0.018836224 -0.020291993 -0.15503716 -0.2524018 0.047491454 0.27272373 -0.048313543 0.06557313 0.07881737 0.12240859 0.17387573 0.11638022 -0.039325602 -0.08802886 0.13924818 -0.06932306 0.06927909 0.13970311 -0.15027015 -0.13255036 0.08580826 -0.015449809 0.120299436 0.008140309 0.109633066 -0.3004077 0.006099334 -0.031182943 -0.15662421 -0.11170742 -0.052174725 0.18391886 0.32049084 0.9723506 0.23028132 0.36374453 -0.1050939 0.3635898 -0.00074310874 -0.010734169 0.15212254 0.09762774 -0.006827113 -0.06620683 -0.020122353 0.0016583372 -0.032511722 0.4205714 0.053458992 0.04710645 0.04998697 -0.5096759 0.028557422 0.00645862 0.19177197 -0.24777171 0.04477816 0.08992334 -0.18649974 0.042267133 0.22391437 -0.14182225 0.23674598 0.15931654 -0.15681788 0.12630248 0.22834848 0.053716395 0.064214066 -0.14599322 0.11965145 -0.14174496 0.19243602 0.14932156 -0.19871274 0.08306451
。 0.16584657 -0.28728342 0.09534643 0.14477147 0.20080006 -0.022699643 -0.17778221 -0.065658264 -0.09905754 -0.38722515 -0.013069047 0.15842116 -0.06013252 -0.39640015 -0.09185723 -0.11662099 0.3364646 0.057278097 -0.30309224 -0.077231005 -0.26706168 0.02596375 -0.12545569 0.027991666 0.16923483 0.0065133963 0.10468343 -0.16625285 0.12524411 -0.03451234 0.0464788 -0.24897526 0.01472425 -0.003987436 0.017756045 0.12414459 0.23124646 0.20162487 0.1786924 0.05161464 0.121104375 -0.16587473 0.13375175 -0.41552088 0.28577653 0.037634704 0.17055364 0.103022136 -0.03422734 -0.039271716 -0.18629232 -0.04248582 -0.12632756 0.32756275 -0.13264121 -0.25108296 0.09551766 0.3481562 0.13015668 -0.3339744 0.0963853 0.35961 0.14688474 -0.09219808 -0.0017514157 -0.056662567 0.2629732 0.0332709 -0.19554992 0.20935956 -0.21005242 -0.23697196 -0.12248999 -0.15603155 0.30835304 -0.60014087 0.044109657 0.014876256 -0.08522864 0.09350897 0.2189341 -0.093341 -0.087112576 0.306241 0.0056762677 -0.22926939 0.011198239 -0.037284758 -0.49202615 -0.18009424 0.5345034 0.1500451 0.22614448 -0.1345687 -0.27326745 0.22580579 -0.19856358 0.15741216 0.019365637 0.113797486
： -0.1625099 -0.0996987 0.15689093 0.18342534 0.27877042 -0.33978653 -0.22056082 0.2418851 0.33288634 -0.3635967 0.1110029 0.118456185 0.22252277 0.031805962 -0.078268744 -0.28997082 -0.05861111 0.21536642 0.517424 0.2595997 0.029896552 -0.08188475 0.18792793 0.042824328 -0.100966 -0.18283974 -0.016979774 -0.11561055 -0.19813904 0.23136218 0.15306449 -0.12811297 0.060557388 0.13639374 0.12905386 0.0564671 0.06883706 0.06206739 -0.043280263 0.026558237 -0.13356507 0.10453005 0.09609382 -0.34381434 -0.13539597 0.20966424 -0.19921929 -0.25733382 -0.23666133 -0.39574096 -0.020352177 -0.061724983 0.001966442 -0.104388826 0.07799369 -0.0971542 -0.081650116 0.62314284 -0.044321798 -0.03363276 -0.016130328 0.23253109 0.12991679 -0.078844495 0.06441235 0.06297069 -0.004698262 0.10526641 0.069734395 0.07555811 -0.37193632 0.1961656 0.2112443 -0.17958689 -0.0818843 -0.7713062 -0.16888404 -0.14351337 0.1632602 -0.29495764 0.0028598206 0.08283472 -0.23006473 0.26859653 0.32510722 0.0046309507 0.29382625 -0.14185363 -0.08521628 -0.033943485 0.2009659 -0.011275461 -0.04019779 -0.2621964 0.1505124 -0.024655616 -0.22173604 0.1914872 -0.057379156 0.18384482
曰 0.10956834 0.029661048 -0.012638114 0.34518585 0.0746145 -0.23762076 -0.3454467 0.09230452 0.24065772 -0.17692535 -0.04171614 0.36935917 0.38083848 -0.047966562 -0.051311895 -0.054507084 0.008567724 0.15017915 0.4739903 0.108407594 0.064703956 -0.17901854 0.13000703 -0.031905875 0.062005367 -0.013161783 0.08856035 -0.17519742 -0.018740859 0.11993476 -0.10263522 -0.11045076 0.15634435 -0.09017188 0.2915666 0.22736953 0.045277204 0.04498054 -0.16099127 0.089186914 -0.17621279 0.08908668 -0.1713672 -0.30762058 -0.018624257 -0.0361519 -0.06862299 0.025587227 -0.1859628 -0.04968019 0.042805597 -0.025993893 0.311424 -0.3133249 0.14296855 0.25702187 -0.0571049 0.8160372 -0.028557194 0.16584298 -0.11365948 0.10443557 0.20934269 0.048676576 0.023705417 -0.09420911 -0.174981 0.055770636 -0.18181184 -0.05729241 -0.35799974 -0.02277842 0.040011577 -0.032087028 -0.0045936233 -0.9007701 -0.073256634 -0.24227415 0.16751553 -0.28858697 -0.093521476 0.08115729 -0.17316493 0.02178178 0.1648942 -0.115206435 0.1731225 0.05490238 0.08248307 -0.039820433 0.042817175 -0.0009766077 -0.21304512 -0.23451631 -0.006806987 -0.038297478 -0.19071941 0.27529877 -0.22658122 0.15481298
之 0.13624656 0.22532658 0.01877981 0.14512019 0.04283371 0.09935264 -0.13342038 -0.057471797 0.10587491 -0.39367995 0.15828037 -0.10575793 0.14072955 -0.2906267 -0.07195054 -0.076346815 -0.08336547 -0.035908133 -0.36189815 -0.06684815 -0.48370367 0.1555306 0.18864308 0.0021329783 0.12160891 -0.18572998 0.3332272 -0.1971026 0.20439205 0.15630239 0.37288702 0.18371004 0.09716228 0.098546416 0.060979366 -0.07548693 0.06598604 0.048145182 0.12628973 -0.16465124 0.15744475 -0.25954074 -0.32105187 -0.3857918 -0.06244053 -0.07334796 -0.27348778 -0.06472464 -0.08621095 -0.11011528 0.122002825 -0.1719008 -0.32395786 0.32206488 -0.02461426 0.076724246 0.08295931 0.028127631 -0.055789553 0.12677194 0.14283822 0.07228007 0.1636723 -0.121152736 0.17742926 0.034693554 0.09180987 -0.31626368 -0.054483354 0.14861014 0.12894586 -0.22578993 -0.20073344 -0.116618395 0.20793732 -0.5949349 0.054017633 -0.12813912 0.265138 0.052799433 0.24497393 0.027580358 0.039179813 -0.028503945 0.12445562 -0.00066263357 -0.024800492 0.049742226 -0.28088945 -0.035652287 -0.01394677 -0.076440684 -0.034707587 -0.100683935 -0.078319885 0.079872474 -0.036692873 -0.12674595 -0.26009998 -0.04162901
不 -0.026797064 0.02903197 0.24439727 0.1722242 0.4384244 0.15836605 0.026741724 0.16776192 0.37034878 -0.011950605 -0.1128386 0.17010683 0.01144287 0.13311814 -0.051889807 0.18905906 0.16758811 -0.17983766 -0.033143673 0.41358215 -0.14767714 -0.088323936 0.03898403 -0.21441956 0.15102185 -0.11499266 0.23087187 -0.013757027 -0.17830746 0.45168838 -0.23450416 -0.17334393 -0.09302575 -0.14247538 -0.19406 0.33628294 0.0918926 -0.11585987 0.08701473 -0.19621255 -0.11106318 -0.11616207 -0.23000997 -0.3763067 -0.05830225 -0.2446902 0.073563546 0.04404205 -0.3144899 -0.07872934 0.08643049 -0.35051966 -0.06341337 0.2738629 0.21515445 -0.09201492 -0.051453654 -0.14352795 -0.020707011 0.009075133 0.08305035 0.15991622 -0.15692924 -0.05869038 -0.098830566 0.23922826 -0.058994666 -0.21618508 0.075347275 -0.050063573 -0.05433711 -0.28186846 -0.032371495 -0.061331358 -0.27735126 -1.0909646 -0.08680843 0.042185176 -0.121940985 0.08674917 0.1239851 -0.10933542 -0.25873703 -0.061397266 0.21096677 0.19242683 0.15881631 -0.031495977 -0.31773743 0.2139644 -0.13778038 0.045657367 0.0744139 -0.2715588 -0.14592475 -0.14769077 -0.13327204 -0.13576098 0.10836133 -0.27818167
也 0.32237983 -0.15336837 -0.072517455 -0.1664815 -0.19296394 0.18711857 0.084631994 0.10006934 -0.11616433 -0.25628164 -0.08411708 0.107577294 0.38260436 -0.15718253 0.00059565913 0.049279857 -0.039813086 0.35391557 -0.4197948 -0.21361049 0.01118456 0.22761343 0.03091399 -0.0043460997 -0.09502851 -0.1254177 0.46232587 0.047210213 -0.3085712 0.36261505 -0.19526671 -0.40027386 -0.11036623 -0.21034019 0.072317295 0.10807925 0.0071672434 -0.03812674 0.19667216 -0.014222801 -0.014563909 -0.25672907 -0.2610266 -0.22927734 -0.2703967 -0.08098356 0.060629886 -0.0221981 -0.09366529 0.08971795 0.003234321 0.002930006 -0.13345148 0.0185615 -0.1499467 0.08532983 -0.04792504 -0.04877922 -0.12846972 0.0159987 0.26833355 -0.013634384 0.2887341 -0.20486395 0.13771921 0.50385433 0.08330211 0.068729125 0.034141563 0.033882465 -0.16448298 -0.03169612 -0.17957237 0.15545808 0.06728105 -0.5985228 0.27171877 0.21635178 0.07746971 -0.12943569 0.014993829 0.028796773 -0.032002974 0.24639945 0.13317646 0.08383012 0.29507452 0.12391698 0.012174865 0.29697517 0.4426332 -0.34512457 0.34058997 0.15339841 -0.361208 0.28055027 -0.09836222 0.31590018 -0.13651921 -0.11575728
而 0.14011832 -0.11558015 0.101324126 0.2421774 0.31488013 0.0029569557 -0.09856742 0.15095803 0.20808522 -0.15523165 -0.05766692 0.41519117 0.21680689 0.11232883 0.08910931 0.016013987 0.18686283 0.06508446 -0.34407493 -0.049574945 0.083498195 0.14395835 -0.045886554 0.2764073 -0.15044768 0.02965109 0.29945096 -0.010582623 -0.23317832 -0.17989388 -0.3906788 0.111518905 0.08529545 0.38604766 0.06314737 0.025687588 0.4748401 0.24426454 0.03510479 -0.016381232 0.00943571 -0.047420863 -0.06648702 -0.32729056 -0.0032157055 0.1397252 -0.11488283 0.31818867 -0.18307403 -0.07586314 0.1943799 -0.36761284 0.15704629 0.047900673 0.07124962 0.08336084 0.15727866 0.010484286 0.14703222 0.14826044 0.09995228 -0.067040995 -0.28596932 -0.19404374 0.046336107 0.045119584 0.22136168 -0.12212434 0.009504093 -0.10029173 -0.060565256 0.054751154 -0.06165584 -0.22198209 -0.18932974 -0.9997699 0.07506767 0.12057093 0.014152243 -0.00026520249 -0.23755637 -0.016960138 -0.24974796 -0.32299232 0.06613316 0.087552555 0.059242856 0.001588136 -0.5047878 0.2526827 -0.24008794 0.020772565 0.56239647 -0.006683057 0.03564025 -0.29850936 -0.20026599 -0.017010633 -0.5134145 -0.011977778
？ 0.02425296 0.04649642 -0.006275456 0.17017792 -0.039127875 0.01285108 0.12844828 0.23986545 0.10152757 -0.28472728 0.005732137 0.11994511 -0.44870707 0.28414804 -0.14335713 -0.011328509 -0.19464709 0.085835084 -0.08090124 0.26528907 -0.16377027 0.21266845 0.025059978 -0.10140779 0.2038027 -0.11633396 -0.07218864 0.023060871 -0.08765287 0.020970743 0.053635597 0.00756088 -0.01919606 0.008549178 0.09169985 0.017189924 0.1946121 -0.075453244 -0.07987708 0.09834304 -0.37428597 0.22904143 0.030971803 -0.30768162 -0.2705338 -0.31438184 0.32782778 -0.27238458 0.0466278 0.09713368 0.17112343 -0.18321416 -0.06544504 0.050694365 -0.29797688 0.1746793 -0.12305421 0.6739568 -0.060792707 -0.3790933 -0.034742728 -0.19703567 -0.024242587 -0.14843522 0.3626657 -0.16792613 0.014986022 -0.1600979 0.07176601 -0.0902469 -0.5827888 0.4097232 -0.07323412 -0.07412661 0.1727214 -0.51160413 -0.00496763 0.063378446 0.044109907 -0.2860457 -0.0452477 -0.26590094 -0.057000414 -0.15556622 0.12296144 -0.02175618 -0.10675608 -0.18151778 -0.075798266 0.18184036 -0.06605074 -0.24835773 -0.016726637 0.08388715 -0.24943589 0.016495127 -0.004503676 0.24119116 0.23414107 -0.1991548
其 -0.19339342 0.023489356 0.057575237 0.19559649 0.1028776 0.10005721 -0.16849788 -0.061547723 -0.11105938 -0.20502926 -0.16185327 0.45275107 0.18874861 0.044695795 -0.15290464 -0.19513898 0.010381161 -0.098207444 -0.43127608 0.04493877 -0.055620763 0.37683097 -0.22744103 0.32928875 0.16848755 0.05637738 0.11578886 -0.14492123 -0.07158951 0.10880521 -0.12354441 -0.22378987 -0.2148259 0.103054695 -0.05380203 0.08438506 -0.09614425 0.108790495 -0.24437366 0.19316396 -0.14292474 0.06953219 0.07196738 -0.0857705 0.09157354 -0.43064937 -0.18510033 -0.21312496 -0.14504747 -0.029776432 0.25578985 -0.04949954 -0.06036539 -0.13280092 -0.20700304 0.08176702 -0.09179126 -0.1326325 -0.15285835 -0.066341154 0.3943085 0.20003134 -0.27522773 0.16698194 -0.070327014 0.5163422 0.040102873 0.17705695 0.01475311 0.05727136 -0.037913892 -0.092203654 0.091230914 -0.056530517 -0.13510649 -0.8795987 -0.0966359 0.21925181 -0.2522728 -0.03834301 0.1911667 0.22195785 -0.14619152 -0.15981251 0.13614547 0.20739728 0.29908988 -0.067019165 -0.026819985 -0.020398807 0.0031207604 0.0061753737 0.002874108 -0.23585299 -0.15330233 -0.058192067 -0.018203571 0.06921 -0.13686436 0.09978482
人 -0.03432948 0.041189086 -0.116340026 -0.030882891 -0.18514152 -0.105439655 0.021974668 -0.12543713 -0.19982006 -0.28841606 -0.30835313 0.08819916 0.5446986 -0.026436418 -0.13341439 -0.21947151 -0.103944376 -0.25965995 -0.14328508 -0.112037815 -0.09577386 -0.08459583 0.051178105 -0.25817776 0.25200206 0.017302398 -0.12862058 0.31769904 -0.22131719 0.123425804 -0.3482808 -0.26659572 -0.319982 0.38458952 -0.21086664 0.062114645 -0.24152084 0.051166557 -0.0020454032 -0.1009969 -0.20959015 -0.028924163 0.14042869 -0.4848134 0.35267133 -0.16476424 0.10744913 -0.16112593 0.12856667 -0.14724098 -0.28902188 -0.23471875 -0.022561803 -0.11211842 -0.33791664 -0.13288212 0.009861646 -0.028732328 0.1034748 0.09460155 0.25327668 -0.3217812 0.31039923 -0.4567642 0.17479748 0.26770255 -0.12472101 0.017947495 -0.16366825 0.11607699 -0.11041857 0.06376046 -0.14085831 -0.16614816 -0.22928083 -0.6633873 0.070295796 -0.13133341 0.088138774 -0.11289604 0.16602942 -0.10984148 0.11941089 -0.22847383 -0.001979771 0.20059645 0.08704694 -0.0006217831 -0.279806 -0.30681852 -0.06581442 -0.09402169 0.016748775 -0.09938305 -0.022383658 0.13168453 -0.37588856 0.044276703 0.29916856 -0.12530775
者 0.18927714 -0.06880834 -0.14626834 -0.20916131 -0.34007388 -0.38567153 0.102829315 -0.020913798 0.3553308 -0.33472666 0.067509405 0.24034123 0.11548452 -0.1292298 -0.11268932 -0.42328075 0.047692154 0.22285709 -0.44846484 -0.058239363 -0.071427606 0.044803828 0.2537662 -0.0029782392 -0.19573843 -0.02971049 -0.30512553 -0.15347493 -0.30509666 0.08964465 -0.3571337 -0.119108625 -0.095676705 0.27936247 -0.00414206 0.064554915 -0.034309167 -0.09000853 0.22923708 0.26679778 0.26907125 0.2369751 0.12127518 -0.11860669 -0.11210761 0.07870892 0.055690058 -0.2177656 0.013818986 0.17725234 0.03617697 -0.22410604 0.1527832 -0.23710644 -0.14504282 -0.045746423 0.14150329 0.10036318 -0.04817093 0.16308807 0.30117324 -0.22233202 0.20276822 0.075308315 -0.017168036 -0.21769764 0.040682614 0.17159721 -0.064533055 0.10260257 -0.30157033 0.057089627 0.046240546 -0.23180263 -0.062398076 -0.67696375 0.22449024 -0.20354119 0.13688512 0.33975923 -0.017730206 0.032551 0.063711226 0.08865071 -0.19185498 0.021302644 0.20996583 -0.10672811 -0.079061255 -0.07418077 0.12546282 -0.21632093 -0.18096973 -0.016943585 -0.4457208 0.05023664 -0.11251194 -0.39580444 0.13259302 -0.3916919
以 -0.12237499 -0.13069573 0.18817699 -0.1655625 -0.043719538 0.41433167 -0.10506827 0.020185879 0.12600207 0.07093996 0.09107874 0.1570869 -0.26012322 0.121794745 0.07360573 -0.32515258 -0.038226273 0.22730015 -0.008899606 0.19721034 -0.02707402 0.1888127 0.12344974 0.24856432 -0.036303453 0.057033077 0.05599681 -0.20226495 -0.0941716 0.2703553 0.08459543 0.07688321 0.066021055 0.08169393 0.23278646 0.028640157 0.028408956 -0.2986523 0.19402973 -0.04741305 -0.3934763 0.17264724 -0.015392585 0.058563456 -0.2516992 0.17435765 -0.18890342 0.2854069 0.13698965 -0.10186761 0.2029277 -0.32946345 0.1165156 -0.11922665 0.2686164 0.280596 0.09656581 0.3370539 0.15493298 0.095947295 0.21582425 -0.004910985 0.16197427 -0.118989654 0.097727545 0.08378066 0.16500853 0.22031738 0.32632917 0.19317262 0.11951044 0.099894725 -0.14061157 -0.33542565 0.14793251 -0.97913563 0.012525945 -0.3151472 0.09176239 -0.036476195 -0.38386312 0.00963421 -0.05922241 -0.1209372 -0.21608083 -0.3601195 0.40132403 0.070089534 0.37497976 0.02059505 0.38322195 -0.09194457 0.23209234 0.27553767 -0.048689097 0.2312814 0.25238302 -0.010882578 0.2550215 -0.011974585
有 0.21615 -0.16930549 0.005694056 0.13322127 -0.0028960332 0.10847976 -0.029015347 0.17975841 0.33435166 -0.21618311 0.12031911 0.24704918 0.24204315 -0.12865165 -0.022376284 -0.4245855 -0.23429385 0.111901514 0.2738457 -0.26208666 -0.07413281 0.15814282 0.15782908 -0.022385117 -0.16941953 -0.11956323 0.081876986 -0.31607455 -0.06100246 -0.085390836 0.08030627 -0.03157406 -0.1837776 0.01206051 -0.0027276953 0.42007747 0.14234279 -0.6263884 0.09441987 -0.057150323 0.30784526 -0.04015208 0.14165203 -0.22022876 0.07468738 -0.17142814 0.038455706 0.04697822 0.028247017 0.09996648 0.1178412 -0.21741864 -0.07696368 0.27214423 -0.013698645 -0.16058573 0.14713015 0.3178934 -0.1717017 0.15576993 0.23101565 -0.24919902 0.03679105 0.3296731 0.107691005 0.41804683 0.116855554 0.44838485 0.15959601 -0.1191842 -0.18531376 -0.05182702 0.55086553 -0.13288654 -0.1289846 -0.7088122 0.28779262 -0.1767396 -0.16820881 -0.08842117 0.2861369 0.006261613 -0.19370654 -0.398847 -0.11181848 0.19479059 -0.14226782 0.07104195 -0.25728795 -0.13331048 0.32692552 -0.017394656 -0.026899064 -0.012331193 -0.07149818 0.0952954 -0.20044807 -0.24348472 -0.14623651 -0.09124368
于 0.024977535 -0.22370194 -0.27592164 0.077744566 0.29873005 -0.27212578 -0.24039827 0.31136662 0.21603148 0.00067241036 0.07343054 -0.121207915 0.23576698 -0.23797387 -0.1651656 0.2330742 0.06944873 0.08673319 -0.33443707 -0.5334589 -0.17942978 0.18576738 0.022356108 -0.059360154 -0.032013707 -0.15891701 -0.026103806 0.44988117 0.068318486 -0.4303292 -0.023977162 -0.09537202 0.03639465 -0.08832222 0.2434622 -0.16785564 0.29292274 0.12792006 -0.2718093 0.23520961 -0.1697827 0.40727887 0.055073038 0.028418755 0.10798377 -0.12304685 -0.25214043 0.1622407 0.12798333 -0.26899388 -0.25170934 -0.36430416 -0.1319099 -0.27784956 0.022660375 -0.19071768 0.17187461 0.5535935 -0.080433846 0.095700465 0.35726875 -0.17852184 0.036184106 0.049654238 0.14440621 0.19217545 -0.0119489 0.3131198 0.025103606 -0.038077667 0.21601614 0.122484475 -0.02448332 -0.044623263 0.06782722 -0.70564646 -0.27258435 -0.15311815 0.390048 0.25890043 -0.050179243 0.032719105 0.19873926 0.3635869 -0.028940577 0.0014048123 0.4215459 -0.06824027 0.079682484 -0.21829559 0.046269126 -0.11083421 0.073805705 0.25738105 -0.19828409 0.096971735 -0.23220633 0.0912207 0.066181004 0.36939973
矣 0.15880685 -0.30654103 -0.29653972 -0.1674641 0.16880178 0.009724201 -0.13130982 -0.3828751 0.31861553 0.27194238 -0.22029808 0.045337077 0.3583224 -0.1985477 0.1425933 -0.093886815 0.3231821 0.12688585 -0.1887176 0.31914255 0.43855563 0.3976891 -0.13167872 -0.0066444655 -0.0710867 -0.16765887 -0.091062725 -0.39260507 -0.041785516 -0.1885353 0.06958594 0.059754323 0.16015564 -0.36458662 0.024720194 -0.23168251 0.041449293 0.28831536 0.039327934 -0.06489915 0.051079474 -0.025578268 0.3152342 0.0780276 -0.22227606 0.24604155 -0.1145366 0.00394415 0.036858164 -0.13569897 0.03994288 0.20034245 -0.02495153 0.33388364 -0.00767289 0.010641627 -0.24991032 0.08697815 -0.25907832 0.20187494 -0.043001674 -0.10832669 -0.12952556 -0.04968012 -0.33706886 -0.023391332 -0.04734163 0.3756236 -0.17100681 -0.22160164 -0.47420448 -0.1583854 0.047562078 0.07290415 -0.023521883 -0.8439787 0.099034555 0.12830217 0.12266256 0.16678332 -0.18184924 -0.28095797 0.26340908 -0.25456178 0.23776942 0.086551264 0.07735448 -0.35685322 0.064301535 0.034563873 0.017301584 -0.0070399735 -0.27600846 0.27513775 -0.09079631 0.053530533 0.040747214 0.25728714 -0.24143176 0.19954202
为 -0.006719798 0.1117272 -0.20557912 -0.30243418 -0.089178845 -0.027938254 0.31960857 -0.059842717 -0.16618922 -0.18825771 -0.030497346 0.1292823 0.32206145 0.27628484 0.10552076 -0.16328178 0.10475827 -0.15550257 -0.27273542 -0.13165355 0.2566886 -0.23123124 -0.0021731062 -0.205889 -0.19459927 0.23915993 0.4628386 -0.20292386 -0.1653063 0.15304741 0.12946731 -0.1850362 -0.19188666 -0.09515999 -0.069073476 -0.1326285 -0.019500703 0.0709218 0.40083507 -0.0864896 -0.3017024 0.072460175 0.040691134 0.051037047 -0.25779343 0.1122382 0.15148893 -0.12761436 0.18080996 0.07891121 -0.17578053 -0.07603775 0.08338124 -0.10489954 0.28695828 0.2645669 0.29189548 0.29309437 -0.101727575 -0.006966359 -0.005444144 -0.30723178 -0.016201468 -0.13254425 -0.15335664 0.17495792 -0.008998949 0.063131385 -0.052085266 0.08581341 0.022577388 -0.080914125 0.113279335 -0.2670972 0.04976795 -0.5632557 0.11633581 0.31006837 0.17793253 -0.26963076 0.009515056 0.23703891 -0.3381383 0.0022470448 0.14488932 0.1844747 -0.12841794 0.15542495 0.060124803 -0.09604905 0.10180638 -0.16829295 0.056214157 0.23742466 0.07533235 -0.02209637 0.19235386 -0.24481733 0.36498564 -0.19586882
君 -0.0780859 -0.27332243 0.039842706 -0.12419253 0.13994467 -0.03151068 0.10036241 -0.1126329 -0.046998926 0.18528621 -0.0319629 0.051662356 0.44122604 0.04412444 -0.22754788 -0.07226247 0.10842176 0.4251232 0.07362378 -0.008117163 -0.22952507 0.16224831 0.21070454 0.24865845 -0.00770568 0.18905424 -0.25101024 -0.26370904 -0.2884481 0.54466933 -0.21859035 0.14860709 -0.05443553 -0.0027954017 0.02953184 -0.26705202 0.19039726 -0.13103338 0.17973754 0.10417124 -0.048089735 0.057173092 0.098664224 -0.13229291 -0.022366943 -0.22404237 0.1252816 0.095992036 0.16367838 -0.034850482 -0.17359628 0.069228284 0.12323461 0.22632097 -0.032841425 0.23415382 0.051861696 0.6327756 0.34969577 -0.341725 0.039646074 0.06626624 -0.10592341 0.06952405 0.032962494 -0.077372104 0.06892679 -0.18345866 -0.3427656 0.0046330183 -0.09738436 0.044533223 0.10608508 -0.03950839 0.3020121 -0.4976337 0.16800424 0.033139355 -0.08718646 -0.13198201 -0.19219176 -0.008665019 -0.08908269 -0.4554412 0.18264477 0.3394538 -0.08550605 -0.019042913 -0.19019231 -0.041209944 -0.022744186 -0.23033234 0.13897529 0.058227174 0.033802465 -0.29512346 -0.13308421 -0.27337775 0.0030392502 -0.079074144
乎 -0.18279001 0.10025619 -0.061251897 -0.0013518771 0.1721393 -0.05247698 -0.10165492 0.044019915 0.031227889 -0.051444195 -0.109463416 0.33407095 0.010528676 0.05309327 0.20310652 -0.0194634 0.068909995 -0.084706694 -0.2003488 0.035340544 0.10220964 -0.027195431 -0.005502816 -0.04718093 -0.20069233 0.16935518 0.13676578 -0.28439915 0.035225373 -0.3721563 -0.29351586 0.06911313 -0.21326427 -0.04362063 -0.05201985 0.026549175 -0.12495623 -0.22674085 0.19690496 0.38736147 -0.3088786 -0.052601945 0.07449692 -0.15886527 0.08668419 -0.051281918 -0.27978864 -0.18163463 0.23705563 0.3284184 -0.07551136 -0.2869268 -0.21744159 0.19970267 0.072883196 -0.08893037 0.35597518 0.6844337 0.0126890745 0.23423657 0.12722166 -0.05839134 0.090368025 -0.21968466 -0.17240104 0.17915906 0.09233238 0.35206282 0.060901023 0.005490822 -0.5699983 0.09433219 -0.00857383 0.08139166 0.20789133 -0.64915884 0.31962126 0.1336293 -0.36575374 0.04230103 -0.14489733 -0.15489796 -0.39245555 -0.24853674 -0.016094176 0.060066648 0.48665088 0.18932845 0.03781513 0.10486281 -0.13498169 0.15886734 0.20478217 -0.17448898 0.09525656 -0.07869452 -0.07023673 -0.28844208 -0.10895714 -0.024046961
可 0.29840323 0.10373362 -0.10991216 -0.17115478 0.13856213 0.10827245 0.23154597 0.06615893 0.0924406 -0.16814868 -0.038118243 0.033854514 0.002481849 0.3906134 -0.0878275 -0.29539683 -0.033176776 0.112586245 -0.450685 0.013865244 -0.10449478 0.20752582 0.2108102 0.25722924 -0.10233279 -0.051733118 0.20134401 -0.023536656 -0.2639326 0.47894186 -0.059934072 0.3073647 0.07654716 0.17661825 0.30924442 0.07346348 -0.0015150188 0.113962784 0.19549178 0.22544551 0.021667875 0.030527052 -0.13528249 -0.18567514 -0.024304356 -0.1551661 -0.011416322 -0.011663388 0.05893661 0.42040074 -0.092591055 -0.19728155 0.042324375 -0.1761382 -0.045984723 0.26407763 0.17263182 0.16288851 0.025094189 -0.20809901 0.2119812 0.04185913 -0.03060686 -0.10027169 0.08463576 -0.301697 -0.11457066 -0.028234363 0.12411671 0.06697422 0.03692541 -0.021683468 0.002227772 -0.2477099 -0.22739586 -0.5347984 0.1630156 0.3294193 -0.22897032 0.22087988 -0.104325265 -0.011103401 -0.019586924 -0.033960484 0.20910816 0.25637174 -0.1490228 -0.064764395 0.1742023 -0.10624677 0.098765336 -0.054320898 -0.0072733043 0.21842661 -0.367735 0.13279837 -0.055198804 0.29809615 -0.357797 0.127467
如 0.2664708 -0.2527969 -0.51798284 0.11085145 0.08647031 0.27772817 -0.0050400505 0.047336783 -0.20418622 -0.14912114 0.19476244 0.07147511 0.3943975 0.15551159 -0.049345493 0.09488854 -0.17795596 -0.17370263 -0.08699884 0.31914195 0.01774985 0.08043554 0.08145423 0.1566479 0.07292486 0.094858006 -0.039642032 0.13890679 -0.08627695 0.3851366 -0.11670336 0.36704236 -0.30122533 0.12943044 0.1257353 0.3795748 -0.13002829 -0.16100287 0.029866915 0.19193 -0.034141183 -0.07245336 -0.10902042 -0.14019668 0.1734941 -0.25450134 -0.19896694 0.052496705 -0.09105773 -0.025805674 0.12496473 -0.19340889 0.17690508 0.37246504 -0.18776593 0.034537658 -0.38385952 0.039560612 -0.038482446 0.17522788 -0.038000558 -0.1438655 -0.18634254 -0.13090135 -0.3078284 0.09696917 -0.24939856 0.32459563 0.17198049 -0.23699166 -0.2874086 -0.05672215 -0.10419845 0.19677624 -0.01871292 -0.63306504 -0.03411829 -0.03124465 0.26244813 0.24867539 -0.22461891 -0.030070748 0.06249078 0.22001405 0.112600155 0.2713083 -0.041108515 -0.08875225 0.18815869 0.17423898 0.059568807 0.103157476 -0.19797316 0.004758355 0.056835316 0.058274146 0.09505201 -0.17605081 -0.28567713 -0.16891208
与 0.012555284 0.33593917 -0.115838006 -0.041547034 0.24961796 -0.065357186 -0.015090022 -0.02720085 -0.105278425 -0.0075778384 -0.0095389495 -0.027101602 0.80356485 0.048045978 -0.15482837 0.04626798 -0.12195764 -0.44866374 -0.17551148 -0.2671326 -0.23522739 -0.048583057 0.18447886 -0.04220276 -0.15314095 -0.09309624 -0.12017883 -0.13099018 0.046915993 0.04685932 -0.032915056 0.1625966 -0.15650997 -0.11371684 0.039860483 -0.010872485 0.04413161 0.067875475 0.013996415 0.019461894 0.02571804 -0.12065964 0.07602222 -0.016450772 0.11934793 0.08767121 -0.16231473 -0.096664235 0.13325529 0.036654018 0.22656801 -0.12248401 -0.13172965 -0.09195148 0.04779949 0.0051285834 0.15977824 0.059792373 0.12634481 -0.26925004 0.26507986 -0.12508942 0.10156287 0.08911449 -0.21123573 0.018891823 -0.11246404 -0.13510029 0.01990119 0.23868553 -0.3582902 0.26313984 -0.23382205 -0.5668554 0.19091319 -0.6020803 0.00014629657 0.121559575 0.2434307 0.17627367 -0.06276198 0.0077462248 -0.14545335 0.096996605 0.28560805 -0.072226346 -0.307996 -0.18331817 0.2071302 0.23364913 0.1382107 -0.010884229 0.3090481 0.16886604 0.12834631 0.13628514 0.27773634 -0.13712408 -0.0002387804 0.05981657
； -0.14230545 0.15681683 0.14310446 -0.2656603 0.32663074 -0.35189956 0.020522809 0.26454538 -0.04231503 0.27689195 0.052487426 -0.12631626 0.06474147 0.42156374 0.04563993 -0.09944118 -0.1832748 0.0048915185 -0.3453032 -0.03826217 -0.07573374 0.07271258 -0.19660024 0.25102282 -0.28750476 0.24449457 -0.14323562 -0.033984333 -0.20038578 0.16718669 0.51635784 -0.1631024 -0.2210025 0.13767074 0.033433173 0.019761331 0.13724232 0.045202833 0.10710956 0.19872648 -0.1955101 -0.24762422 0.18859528 0.076263666 0.10011247 -0.023725953 -0.0626782 -0.10542554 0.036643967 0.100794226 0.10835524 -0.22633496 0.059556648 0.2892256 -0.11028652 -0.4450434 -0.22029017 -0.2565926 0.10877122 -0.36623487 0.02333208 -0.2567566 -0.024776008 0.15545513 -0.27252948 -0.14936946 -0.17582947 -0.037078675 0.06959541 0.036520947 -0.09748689 -0.07388239 -0.36856166 -0.053593952 -0.0811471 -1.0566164 0.04786397 0.451101 -0.039432563 -0.6679394 -0.25770658 -0.3499956 0.42712963 0.3288309 -0.19952112 -0.036302436 0.1581782 -0.33545122 -0.054084163 -0.21811527 -0.18231219 -0.051444024 -0.4566207 -0.06417979 0.093017384 0.0005990602 0.013467189 -0.43509945 0.1040624 -0.12242146
言 0.31608137 -0.13769983 -0.49380413 -0.0163173 0.024559248 0.119421065 -0.20857988 -0.0430566 0.006721103 -0.24172518 0.16011468 0.17332171 0.23684274 -0.0022887979 -0.000108961016 0.054956067 -0.19208959 -0.04638901 0.019795686 -0.083227 0.27861777 -0.21200283 0.18626754 0.22136413 0.04331159 -0.041749015 -0.1657284 -0.21050502 0.09768618 0.09314675 -0.083705656 0.028321508 -0.015935082 -0.16731636 -0.29604903 -0.0339454 -0.29745412 -0.20462473 -0.14735933 -0.1664623 -0.23656362 -0.025431251 0.27493256 0.5491924 0.006131874 0.25167364 -0.23854545 -0.4042949 0.12886474 -0.018192038 -0.03870485 0.14895447 0.29010856 -0.006191476 0.08996551 0.17321785 0.14530301 0.035223946 -0.019517243 -0.093572855 0.06319057 0.11097599 0.03290296 -0.03608033 0.13556479 -0.1290575 0.012507349 0.3343163 0.35202858 0.27253753 -0.35325438 -0.21204771 0.15991604 -0.34525943 0.04787176 -0.7225317 0.33831817 0.22527972 0.10892399 0.0020231544 -0.28658167 0.24292502 0.15929765 0.017616332 0.30829996 0.14395441 0.30268967 -0.043265726 0.16802025 0.06187815 -0.1487506 -0.19376408 -0.106906496 -0.16841698 0.04100604 -0.04840469 0.025500651 -0.04589232 -0.19393684 -0.044190623
无 0.29546866 0.027022306 -0.1974865 -0.08271939 0.316094 0.13648236 0.007579723 -0.31550682 -0.292531 -0.13287926 0.008592003 0.19940415 0.22719605 0.0034430725 0.36313054 -0.29699683 -0.13432221 0.3028001 -0.288997 -0.042411182 -0.33985806 0.09394089 -0.19290452 0.18062843 0.22609247 -0.041273326 -0.11234359 -0.18385188 -0.33763272 0.094354995 0.011483219 0.21134475 0.035103124 -0.24463262 0.14154592 0.11725645 0.008921228 -0.35322192 0.24656236 -0.14758158 -0.14518753 -0.21426265 0.25126597 -0.115317374 -0.046456136 -0.4073386 -0.39121333 0.12614219 -0.13567488 0.29395047 -0.00910164 -0.2765588 0.1701845 -0.06297615 -0.023856645 0.065853864 -0.17242761 -0.028850596 -0.36823535 -0.016277043 0.04521022 0.12300266 0.005346131 0.2328053 0.10257331 0.13631962 0.11011363 -0.04501265 0.41953042 -0.095557764 -0.090942875 -0.079231344 -0.16210249 -0.23117441 -0.054660194 -0.8095362 0.019242734 -0.132944 0.3589623 -0.49161306 -0.42059377 0.04928726 -0.22195898 -0.24680631 0.12600587 0.2243135 -0.25273877 0.13571441 0.2605385 0.13045959 0.038070805 -0.009711744 -0.16998546 -0.08788858 -0.15247387 -0.23620594 -0.23544732 0.23616743 -0.22754176 0.059394754
则 -0.044233356 -0.21267048 0.35442677 -0.030325146 0.18262188 0.09382167 0.28885287 0.08977744 -0.41464403 -0.32237524 0.12709336 -0.017692778 0.12816642 0.0563599 0.23143238 0.22644737 0.004434194 0.34029898 -0.3592833 -0.19034058 0.07771225 0.25240242 -0.19218709 0.082814805 0.044904474 -0.29233688 -0.21256644 0.20563513 -0.008626163 0.23112868 -0.058499753 0.25034577 -0.19055049 -0.22205122 0.07516632 0.116417356 0.4189794 -0.20670408 0.1547247 0.28175956 -0.2831279 -0.05412732 0.06311908 -0.21829748 0.021392899 -0.13484238 -0.055843875 0.040477164 -0.029898848 0.0024878124 0.12933914 -0.023821944 0.25248808 0.18822323 0.32430354 -0.032332916 -0.3424737 -0.35773644 0.37119788 0.29472545 0.107176244 -0.10726245 -0.18954515 -0.08172557 -0.078014515 0.06666457 -0.12196867 0.48659524 0.0651615 -0.013012541 0.0040108548 -0.03895143 -0.261851 -0.1438157 -0.06523985 -1.0108987 -0.00033140648 0.18606827 -0.16062088 -0.15924342 -0.30303064 0.35705292 -0.31847188 -0.07937286 -0.2512986 0.41044897 0.296652 -0.21849912 0.108634144 -0.2074281 -0.13092448 -0.39992586 -0.11295429 -0.096007675 -0.20091525 -0.008428134 0.14684679 -0.3458763 -0.06469285 0.08716276
！ 0.050352342 -0.17631567 0.044035025 -0.08346617 0.18446232 -0.21578708 0.26639512 -0.0060872845 -0.30667186 -0.042304464 0.15404189 -0.028544271 0.46037337 0.23848149 0.047011472 0.14597797 -0.03129137 -0.072330765 -0.13857202 -0.017362326 -0.010912048 0.13469143 -0.061163962 0.002537485 -0.021804022 0.01196282 -0.50424945 -0.2754358 -0.016004922 -0.30790374 0.07782537 -0.23000003 -0.27618805 0.03772664 0.03093835 0.0012035966 0.09471821 -0.10197732 -0.20823796 0.13028741 -0.10768336 0.008643451 0.039010152 -0.17955539 0.07997838 -0.12505662 -0.49615175 -0.101910315 0.29008535 0.01799275 -0.31677908 -0.32452497 -0.036983147 0.14349096 -0.097649164 -0.32541025 0.14602104 0.2854685 -0.19233093 -0.22681996 -0.06991391 -0.27467304 0.062465265 0.006296528 0.25887567 -0.17881091 -0.0758263 0.27397045 -0.06280561 0.25677925 -0.24625047 -0.1914737 -0.1672406 -0.025067685 0.18442729 -0.40473878 0.20145842 0.28251213 0.13066302 0.1411856 -0.13115324 -0.14337832 0.102447525 -0.06011265 -0.24940734 -0.13564003 0.24763551 -0.16447012 0.12535211 -0.01425642 -0.16011946 -0.05008731 -0.49133766 0.15626958 0.19959424 0.096346825 0.20655619 -0.020851897 -0.13157119 -0.030872202
问 0.07409965 -0.15540843 0.3674524 -0.074299216 -0.4435031 -0.09192839 -0.03903301 0.28114703 0.0708547 0.04512586 -0.11073714 -0.036324345 0.73572683 -0.15291858 0.19189966 -0.0495532 -0.20675047 0.25102746 0.15158227 -0.32566532 0.13087112 0.011274504 -0.52953976 0.27512404 0.08938533 0.1011935 0.28750533 -0.030717658 -0.13451308 -0.20171149 -0.21539693 -0.02836816 0.37255186 -0.102119245 -0.1476833 -0.19442761 0.058680635 0.20421623 0.40900347 -0.032694384 -0.31631857 0.16636862 0.379404 0.1509349 -0.041833617 -0.16129579 0.052709393 -0.03604149 0.16410002 0.043039277 0.3747416 0.25984 -0.2541398 0.022237217 -0.062011987 -0.28596106 0.060253207 0.9644251 0.1551854 0.14648065 0.0844929 0.14103745 0.103186905 -0.041407093 -0.28800592 -0.19671886 0.0039098393 0.10442452 -0.124165885 -0.18651648 0.4216473 -0.037348412 0.09757383 -0.005057545 -0.049417388 -0.61727566 -0.0420051 -0.27764377 0.3094175 -0.05559718 0.05729202 0.1853585 -0.021292277 0.103781216 0.07856355 -0.12462523 -0.040094186 -0.12170406 -0.0024443408 -0.2410146 0.17143056 0.28169814 0.14901274 0.19588013 0.35029796 -0.04955648 0.31223625 -0.3542961 -0.14123353 0.28240678
知 0.27248043 -0.014696263 0.14497438 -0.008709405 -0.094105326 -0.022068616 -0.13111019 0.06708351 0.1498359 0.19461352 -0.042603426 0.2671289 0.42727542 0.22969289 -0.13802908 0.006287751 -0.24037659 0.06614671 -0.21950427 0.26432675 -0.04231584 -0.10162653 -0.36468345 0.07433392 -0.21030538 0.19510347 0.018187826 0.15993056 -0.046815433 0.47698596 0.10750037 0.15097998 -0.27548033 -0.014015926 -0.044870537 -0.021895312 0.23775554 0.1559528 0.10295371 0.24491411 -0.057648033 -0.1530985 0.15057354 0.15812507 0.15889433 -0.29727572 -0.042357463 -0.16572955 0.14957498 -0.14719129 -0.14139009 -0.27106827 -0.25557005 -0.07791833 0.30722997 -0.13165893 0.13416982 -0.2924629 0.015451876 -0.2082853 0.047896773 0.075707376 -0.046916086 -0.06108799 0.0033224914 -0.081242226 -0.0006745029 -0.3492348 0.07534449 -0.09070656 -0.4702173 0.04638472 -0.022871833 -0.22269584 0.24328104 -0.43429232 0.02659791 0.13813862 0.4259924 0.28395027 0.035821542 -0.08146291 -0.25896528 0.4988863 -0.060768567 -0.04686568 0.05938434 0.46975657 0.12492371 -0.1418504 0.21790926 0.20691364 -0.20424727 0.17951873 0.17172304 -0.033301443 0.18100666 0.09440257 -0.11162096 -0.13981864
何 -0.12284288 0.055051547 0.21087706 -0.0053659603 -0.2874404 0.16470864 0.07573964 0.24970484 0.033199213 -0.19714402 -0.005859744 -0.022057477 -0.07154295 0.058218554 0.21762641 -0.042473547 -0.22060344 -0.12261961 -0.042349838 0.10383125 -0.12089821 -0.018387698 0.34180424 -0.278106 0.12611674 0.1959997 -0.11001176 0.090368666 0.04903654 0.32794303 0.1766037 0.10265183 -0.27974743 -0.011245472 0.11544991 -0.112381995 -0.038845737 -0.017398132 -0.03424459 0.22702825 -0.093989134 -0.4267867 -0.03978438 -0.20961082 -0.079764694 0.09761787 0.11509253 -0.030829638 -0.19415481 -0.018821847 0.022005025 0.028008131 0.15828428 0.04440831 -0.13683894 0.3220387 -0.21163794 0.6045299 -0.18550645 -0.17784296 0.058817167 -0.13591948 0.10721101 0.15366425 -0.6246535 0.10184919 -0.05171506 -0.2864749 0.3431321 -0.1636142 -0.2031586 -0.03572254 -0.091732785 -0.39328855 0.20651737 -0.24940324 0.13186887 -0.04436267 -0.2094275 0.29214102 -0.02511848 -0.13077775 0.13775086 0.103864625 -0.040176846 0.28625992 -0.038501255 0.29115376 -0.03551546 0.0070885215 -0.03478823 -0.06762826 -0.17565338 -0.10973048 0.14397813 0.0070339795 -0.014419185 -0.053595234 0.08674067 0.20553988
吾 -0.16286615 -0.0626626 -0.1953174 -0.0031998428 -0.05288681 -0.050121963 -0.13099389 0.045169532 -0.3135872 -0.15959129 0.18897144 -0.25471345 -0.052543208 0.09852484 0.17452468 -0.055222265 0.029933633 0.041201595 -0.4226434 0.14343683 0.05741546 0.05433555 0.09244012 0.13818045 0.09684602 -0.013633998 -0.33481115 -0.08539954 0.07050407 0.26511562 -0.17522976 0.11916623 0.02089065 -0.034978077 0.13938166 0.12973209 0.33164436 -0.0201203 -0.009237608 0.4657179 0.06404071 0.12587768 -0.2279178 0.38199514 -0.2418043 -0.035032053 -0.054508317 0.3373297 -0.32858825 0.11724588 0.114020936 -0.17970274 0.0019971486 0.082476854 0.014169783 -0.17495385 -0.3820854 0.66827124 -0.105148286 0.38150468 -0.03463184 -0.73986864 0.25200608 0.065377764 -0.14705391 -0.1804781 -0.21616769 0.02783931 -0.14221357 0.00016022054 -0.16596259 -0.17821832 0.064104624 0.0024691569 0.391868 -0.37539318 -0.03591718 0.1715668 -0.19477941 -0.0079229325 0.21474928 -0.21948346 0.12152917 -0.024468783 0.18497977 -0.20664145 0.065244615 -0.5323335 0.3323047 -0.0348654 -0.202608 -0.060848776 0.21200103 -0.043250825 -0.17484109 -0.21937746 -0.18762024 0.06194582 -0.16502342 -0.1797302
仁 -0.043654073 0.1969653 -0.13029723 -0.016650807 -0.3851724 0.06882099 0.1229315 -0.050282687 -0.17132866 0.046233397 0.08639181 0.1474669 -0.25093216 -0.025770262 0.06627893 -0.07620468 -0.24102946 0.091293074 -0.35651398 0.2571158 0.18852857 0.13018231 -0.2059238 -0.012154014 -0.20490006 0.06569182 0.1889527 -0.009663249 -0.0913354 0.16089632 0.24633673 -0.21091382 0.1679773 -0.038748518 -0.020431489 0.21022812 0.39052063 0.0701228 0.040614188 0.3640527 -0.3757694 0.12551826 0.36373246 0.27965504 -0.36077422 -0.121161334 0.12544526 -0.20693465 0.22784247 -0.25569305 -0.08383321 -0.17901278 0.18353754 0.1245221 -0.12685478 -0.0030056573 0.16228017 0.37786064 0.07010841 0.12694024 0.05151426 0.08138285 -0.17335306 -0.11042664 -0.21492177 0.244441 0.17402808 -0.21314374 -0.19688413 0.19474566 -0.3327573 -0.14353114 -0.06181916 0.11528703 0.033183143 -0.4592764 -0.11347915 -0.094217695 0.17434148 0.00625642 -0.13816775 0.033011664 0.0665751 0.35036138 0.13020106 -0.021260079 0.11389547 0.32170346 0.2149745 0.045679126 0.13050361 -0.051523227 -0.07330696 0.24633723 -0.18042444 -0.24887621 -0.0052693607 0.25572026 0.23455513 -0.01849477
夫 -0.2650074 0.078873396 0.11765915 -0.15932852 0.08721218 0.074838474 0.021022744 -0.038985558 -0.09574317 0.41417497 0.15689786 0.06329028 0.4174589 -0.0049801087 0.027937474 0.24471736 0.27603292 -0.21959063 -0.15768717 -0.0726644 -0.15729149 -0.36937398 -0.24825774 0.18605769 0.18809901 -0.030807422 -0.09147876 -0.052908607 -0.08575551 0.14339319 0.14343542 0.23778987 -0.17561886 0.236378 0.06478511 -0.19864516 -0.004112498 -0.11007533 0.004003752 -0.18563007 -0.073812716 -0.12733167 0.06275946 0.18287171 -0.21504799 0.1897842 0.33688346 -0.5381682 0.21977454 -0.41078314 0.08618568 -0.105675176 0.013873368 -0.28185526 -0.1737733 -0.3564684 -0.022398906 0.4958389 0.042085186 -0.045432445 0.08452479 -0.25703114 0.2805734 0.28089637 -0.0729501 -0.097754925 0.3217676 -0.115513295 0.18173559 -0.15538333 -0.040884607 -0.24856985 0.16421212 0.36102575 -0.081484675 -0.40929475 -0.05541542 0.2249057 -0.07320237 -0.16892982 -0.048864342 -0.22949266 0.07216519 -0.42969263 0.22997826 0.12592372 0.23632675 -0.36536816 -0.040265623 -0.32446262 0.32553387 -0.17575742 0.032765955 -0.4116707 -0.14759298 0.3804384 -0.06319939 -0.16344541 -0.20029475 0.04362483
、 -0.0018744208 -0.5321672 -0.118107304 -0.22306472 0.5629739 -0.111166455 0.040258247 0.83372504 -0.2634471 -0.25275326 0.21197629 0.111280106 0.052201916 0.1734703 0.48364136 0.050403815 0.16696218 -0.07797823 -0.3144516 -0.010799318 0.123615995 0.15288424 0.051815838 0.26434252 0.5237844 0.042323325 0.21737465 0.06074669 -0.12914461 0.10090896 -0.013935751 0.2112939 -0.02924341 -0.2020123 -0.07309396 -0.03846343 0.16247688 -0.030303156 0.03164898 -0.07375628 -0.2493165 -0.061713357 0.031965416 0.27136806 -0.033976443 0.34760714 -0.026862292 0.11936599 0.14846714 0.23223132 -0.14639136 0.018541018 -0.0702448 -0.12990043 -0.16957234 -0.100027524 -0.23598616 0.6018897 -0.09287475 -0.08336742 -0.33936843 -0.013630881 0.29585168 -0.34598675 -0.16557571 0.07680739 -0.3342912 -0.24376239 0.009547116 -0.20146255 -0.2573372 0.04450426 0.4671897 0.011675671 0.19592471 -0.89479065 0.078647695 -0.456044 -0.009661412 -0.093395844 0.13936666 0.055790592 -0.23206128 0.019482441 -0.05059735 -0.046279795 0.24697176 -0.19795077 -0.078928694 -0.82868946 -0.38073173 0.3254326 -0.081672855 0.14897308 0.04695002 -0.11536658 -0.20936567 -0.19508517 -0.09226684 0.16784585
道 -0.1279942 -0.15115422 0.05626022 0.019938815 0.12962392 0.07253573 -0.18104963 -0.15186742 0.038255338 0.06612614 -0.25558552 -0.08095964 -0.15229228 -0.05917619 0.012765551 -0.046674125 -0.35354227 0.06486852 -0.056689896 -0.35581058 -0.25944406 -0.17673528 -0.3068529 0.12587209 -0.20454387 0.23351644 0.34186786 -0.31027383 0.486622 0.6447554 0.14240845 -0.041752994 -0.13575785 0.37385625 0.049486645 -0.3168969 0.124948375 0.17807023 -0.09756946 -0.26071456 0.07243447 -0.15148775 -0.03868398 -0.11818062 -0.11147222 0.017823795 0.12547459 0.08218565 0.011837741 0.0078507215 -0.3073743 -0.21348134 -0.065909676 0.15366013 0.17541951 -0.4494203 -0.007172712 -0.0012858971 -0.12354019 0.047249507 0.1005156 -0.16439398 -0.12056093 0.30965117 -0.06798937 -0.38263124 0.17837964 -0.29433197 0.058200266 0.24272123 0.03744131 -0.16245079 0.036737807 -0.08267487 0.22809449 -0.777226 -0.11381225 -0.22306165 0.19967163 0.4649892 -0.2710941 0.061889924 0.04419193 0.049674757 0.29353824 0.3050565 -0.110386536 0.50028557 -0.16944769 0.22875726 -0.24924545 -0.20594937 0.095496796 0.5311192 -0.06232203 -0.3817117 -0.29179296 -0.08108422 0.27832592 -0.10009495
焉 0.15733564 -0.20142598 -0.31529996 -0.27843103 0.2678697 0.18528453 0.23413314 -0.17588282 -0.034576666 -0.16842404 -0.14728698 0.0018817419 0.10537781 -0.40468365 -0.08141135 -0.124439545 0.0066685514 -0.19288266 -0.30083823 0.13291985 -0.023229627 0.28621405 -0.44771552 -0.19801073 -0.2820844 -0.21187049 -0.05199293 0.029259382 0.05746037 -0.077111736 0.016450487 -0.28287894 0.010702316 0.40143013 0.27823678 -0.059736095 -0.3553337 -0.3056021 -0.06744802 0.09445077 -0.19494103 -0.4360656 0.07999717 -0.14058822 -0.15104863 -0.17814603 0.23732059 -0.5047275 -0.1286919 -0.07327107 -0.2831006 -0.22443922 -0.053878695 -0.05932118 0.013507053 -0.076436415 -0.27139682 0.40176052 -0.27444628 0.15550573 0.06436752 -0.3193932 0.1077909 0.07414155 -0.09750156 0.00059702434 -0.12654468 -0.4837431 0.27068087 -0.06199109 -0.24919616 0.022114968 0.22463533 0.0014485233 -0.38367912 -0.72193307 -0.021224327 -0.14761902 0.18408647 -0.19796269 -0.20079653 0.04005844 -0.13822468 -0.09410686 -0.4026408 0.19733603 0.057297774 -0.39450258 0.07323374 0.16884775 0.2716 -0.2784104 0.3502638 0.12291921 -0.45676926 0.16506587 0.016001679 -0.18909274 0.035484217 0.14753705
行 -0.093058296 -0.08593615 -0.10641422 0.10685221 0.5533048 0.20577537 -0.07259539 -0.064929724 -0.24416807 -0.02665063 0.08044899 -0.08369392 -0.046967547 -0.11050076 -0.03425317 -0.0354389 -0.20030153 0.09017741 -0.37310338 0.014191405 0.28826937 -0.25745216 -0.12054578 0.23817122 -0.30830655 0.2587316 0.006441226 -0.094204366 0.09062908 0.23791555 0.16390611 0.298624 0.41739136 0.12608822 0.083907224 -0.33007252 -0.08755547 -0.14389636 -0.4691219 0.19869818 -0.24563612 -0.06239929 -0.3393438 -0.10250492 -0.45099822 0.027500708 0.059401177 -0.04422664 -0.09016808 0.1874721 -0.027623102 -0.24675825 -0.066820465 -0.09882241 -0.37257448 0.0032042158 0.11996003 0.5921145 0.0028679147 0.3342487 0.19203915 0.111513235 -0.18897903 0.15428294 -0.31495437 -0.13242917 -0.35023627 -0.12063451 -0.17523201 -0.018865045 0.10775807 0.26759458 0.197647 -0.41365004 0.10631751 -0.5430066 0.42995968 0.14174761 0.383639 -0.34367776 -0.022218013 0.05895912 0.15143836 -0.14803529 0.23087677 0.32577333 0.15540615 -0.06333939 0.022700982 0.04832379 0.06106945 0.21539558 0.35591978 0.15028638 -0.0009226962 -0.03427644 0.12936121 -0.018328223 0.18456589 0.15159637
谓 0.31103516 -0.18046355 0.13848096 -0.04752124 -0.19067499 0.53159004 0.060897145 0.09685152 0.023882171 -0.009256605 0.003835572 0.38614476 0.5377226 0.4834876 0.4075302 -0.12555797 -0.096324265 -0.0107500525 -0.043121364 0.0683117 0.17502908 0.12695006 0.13970862 -0.034254372 0.24164513 0.042668283 0.36968797 0.16374488 -0.32146412 0.086706035 0.36137596 -0.14310572 0.49805808 -0.051745687 0.15990768 -0.25735706 -0.35227975 -0.08903074 -0.16169782 -0.05868168 0.12678474 0.023597434 0.012403438 -0.06395859 -0.123517446 0.016992077 -0.64846385 -0.2717246 -0.076333195 -0.27131256 -0.0931697 -0.01771349 -0.06300479 -0.0686787 -0.23540537 -0.15680113 -0.013504479 0.3438837 0.010427536 0.021259017 0.24523997 -0.16242516 -0.15959519 -0.06701204 0.09228056 -0.000765515 -0.120294414 -0.24621668 0.07079535 -0.22302634 -0.31049728 0.20012482 -0.17795059 -0.54923624 0.027378043 -0.25259507 -0.0029970426 -0.10758133 0.45382217 0.2375094 0.37337515 0.28672445 0.21542752 0.2261952 0.28323376 -0.06066873 0.029775364 -0.0772944 -0.32578167 -0.006697385 -0.2912768 0.15776351 0.21413171 -0.23560709 0.20293285 -0.046816044 0.13198993 -0.020571252 -0.06985843 -0.013784708
必 0.047102354 -0.40595585 -0.022789972 -0.05402172 -0.121976286 -0.2907992 0.016690206 -0.047833122 -0.025548805 0.09562408 0.52018106 0.052027065 0.14537087 -0.20934005 0.01768865 0.16317245 -0.26268142 0.22657873 -0.55538577 0.27367273 0.04934265 0.02487592 -0.24491417 0.5000007 -0.0034581888 0.083936535 0.27483782 0.16787787 0.16829608 0.06691815 0.013229526 0.48019844 0.038659364 0.090879545 0.1987276 -0.09488201 -0.073937215 -0.058850806 0.25825235 0.21144582 0.17930976 0.3226882 -0.2579912 -0.1438602 0.07067446 -0.07358052 0.13784732 0.2694018 -0.2897523 0.13618645 -0.042333137 -0.15080522 0.22820196 -0.11348836 -0.25316048 -0.034102898 0.15786034 0.075750895 -0.22499727 -0.16348135 0.4045971 -0.011996282 -0.35562962 -0.0051891906 0.009826551 -0.0019943467 -0.08606692 -0.008649761 0.062333826 -0.022357032 -0.28253552 0.38753697 -0.0049335565 0.0631591 -0.21810707 -0.5127992 0.10933752 -0.19137694 0.47817653 -0.19675915 -0.18784674 0.15891548 0.06163374 0.15586503 -0.3814342 0.07760386 -0.32774228 0.4009394 -0.29557618 -0.22931589 -0.13625354 -0.074111894 0.10117115 0.0062086396 -0.17401884 0.05027485 0.22045371 0.081380606 0.024597641 -0.40447113
礼 0.17196156 -0.05136183 -0.017566267 -0.076075494 0.3648193 -0.1613076 0.29174587 -0.14984126 0.08720752 -0.15500619 -0.22475 0.07655766 -0.17270479 0.29002643 0.0050830445 0.21874034 -0.025009949 -0.14636245 -0.6117228 -0.17885892 0.13637239 -0.21832709 0.0761079 -0.15366343 -0.113963135 0.18454394 -0.014760159 -0.20756909 -0.08360338 0.18906358 0.4489053 -0.1686213 0.11290306 -0.23903078 -0.47886255 0.3443644 0.18230289 0.2267931 -0.08965343 -0.49109954 0.37389982 -0.065273516 -0.16628599 0.14855729 0.02960708 -0.026818171 0.53214186 0.57668203 0.47005442 0.04189931 -0.25735834 -0.19625458 -0.06835443 -0.31879622 -0.18331608 0.16357288 -0.11931352 0.12848383 0.14164995 -0.3823293 -0.19818678 0.50428003 0.09291627 0.16280489 -0.28248376 -0.07903941 -0.15775143 -0.014678162 0.32537273 -0.039644476 0.0094476305 0.1739803 0.19246456 0.12860532 -0.2622201 -0.63898283 -0.4975075 -0.38197052 -0.5021105 0.26494318 -0.23429872 -0.13330281 -0.08233982 0.056128476 -0.17429146 -0.028838469 0.09327802 0.24308185 0.4276312 -0.09962388 -0.26512048 0.076536775 0.2767775 -0.14410658 -0.5189017 0.053225353 0.027912911 -0.15469006 -0.024833847 -0.038089573
孔 -0.035945013 0.19719112 -0.31108448 0.19550392 0.07121483 -0.017788038 -0.021720171 0.2168407 -0.019701224 0.09435624 -0.043527402 0.039377853 0.37330976 -0.32735574 0.5815769 0.33156225 0.023952257 -0.29630265 0.16644703 -0.16765846 -0.19126299 0.090284675 -0.35774052 -0.06136436 -0.23981273 -0.14822075 0.36972386 -0.20038162 0.2034717 0.094276235 -0.08554163 0.2353299 0.2394483 0.022209937 0.11343598 0.07418881 -0.24978827 0.09334219 0.25413942 -0.07481874 -0.14133516 -0.3674032 0.024182096 -0.24306133 0.37542158 -0.4620503 0.08702092 -0.15671709 -0.013930289 -0.12247401 -0.49447927 0.041912332 0.07353972 -0.007846497 -0.042457312 -0.070627555 0.082751915 0.815162 -0.05620926 0.08883174 0.25627676 -0.07658641 -0.33701268 0.18546732 -0.18864894 -0.06070962 0.09573029 -0.13753638 -0.1862148 -0.35359448 -0.040833373 -0.32528484 -0.19847658 0.09357305 0.13450843 -0.46386385 0.24560274 -0.09704782 0.20195425 0.27643704 -0.1991847 -0.28788805 0.046979986 0.040891558 0.2102214 0.041319873 -0.15999077 -0.30877757 0.30158553 0.28041014 0.16327733 0.064281136 0.16971739 -0.14153938 0.10998829 -0.027244523 0.61874574 0.29890487 -0.052841127 -0.05290909
斯 -0.1400141 0.3997488 0.34454575 0.18755113 -0.35285315 -0.00046415068 -0.22942114 -0.37558177 -0.0525076 -0.012218753 -0.21445031 -0.1153091 -0.23164105 0.2390562 -0.15085325 0.109711505 0.10170786 -0.15396291 -0.6543432 0.09495379 0.12817764 -0.11885454 -0.6574836 0.13828404 -0.3229708 -0.2347478 0.038996708 0.07868996 0.19083188 0.22414301 -0.16337468 0.27819395 0.39239922 -0.3537546 0.104167566 -0.008716738 -0.35427767 -0.2802634 0.09764907 0.0022788795 0.32661676 -0.07439171 -0.44397926 -0.14642736 0.23076785 0.26351064 -0.048052438 -0.03907118 -0.32810384 0.113102905 0.5739978 0.23683147 -0.24283142 0.03736341 -0.24561185 0.083844155 0.23591848 0.5283844 -0.12763967 0.020309702 0.20443365 -0.05129576 0.15973741 0.27138305 -0.087938264 -0.16358684 -0.04173993 0.23118176 -0.25604728 -0.23871177 -0.37979025 0.1714541 0.017858284 -0.35359964 -0.21450481 -0.35134238 -0.14681263 0.1376756 0.011536921 0.1388537 -0.16045994 -0.4321979 0.36604515 -0.11588928 -0.24358544 -0.3247699 -0.12225967 0.23399492 0.024644116 -0.34764972 -0.25992772 -0.1767163 -0.17277528 0.11372485 0.115254395 0.1393662 -0.16120014 0.052854232 -0.36468467 -0.091880426
三 0.00919179 -0.17558432 -0.490586 -0.5513465 -0.2943217 -0.0904113 -0.40941224 0.08459824 0.10548739 0.38793778 -0.14297326 -0.35725045 -0.23788728 -0.1697401 -0.28383148 0.17695239 -0.06660843 0.0911085 -0.2822834 0.12308359 -0.04323923 -0.23114008 0.05428677 -0.05100878 -0.011724853 -0.28816798 -0.057880905 0.06385658 -0.2310158 0.12013018 -0.03144105 -0.040650614 0.24916527 -0.10344453 -0.031233352 0.3583818 -0.017905626 0.13434197 -0.031367324 -0.28955454 0.25391984 0.4525517 0.15797873 0.013381915 -0.08335485 0.07822827 0.07433581 -0.28554472 0.14945146 0.2537212 -0.13461703 -0.37028402 0.15810098 -0.05741067 0.17063166 0.055279683 0.18320245 0.45168114 0.097794995 -0.1314406 0.2528922 -0.18182921 -0.064499535 -0.22263718 0.05863985 -0.12055205 -0.16342758 0.13569278 0.006471607 -0.43233275 -0.23461229 -0.18850519 -0.07719682 0.075808436 -0.012027221 -0.79531777 0.2113339 -0.0082547525 -0.09005722 0.17229857 -0.060507443 0.011542578 -0.0459695 0.22224042 -0.18071441 0.15647224 -0.4411023 0.12428928 0.036947574 -0.095355816 -0.103131145 -0.30830503 -0.062580206 -0.083479986 0.05162426 0.061308686 0.06259656 0.19346073 -0.21280566 -0.076982714
能 0.1290369 0.00094253523 -0.020514121 0.09567884 0.012557797 0.08098753 0.116951965 -0.19491127 -0.23515646 -0.14353554 -0.3559309 -0.10214946 0.0368185 -0.11367773 -0.21231245 0.2061078 -0.3136257 0.3594179 -0.15597934 0.31724855 -0.13950133 -0.36143467 -0.37300846 -0.18688762 -0.05550766 0.21114965 0.42368692 0.34484342 0.12279184 0.2597949 0.09174501 0.07983488 -0.055018853 0.07850597 0.18576352 0.11130453 0.44565237 0.077193975 -0.10350409 -0.04396262 -0.13229698 -0.098387204 -0.029790698 -0.20692752 -0.13297942 -0.20250113 0.16945232 -0.3176253 0.105543435 -0.27164912 -0.07486613 -0.13338624 -0.114077516 0.035231397 0.015831819 0.15749395 0.0493255 -0.15935062 0.18458496 0.25439477 0.25138962 0.08840324 0.07131202 0.0050390274 -0.30329514 -0.23670113 0.04645768 -0.16104484 -0.41286892 -0.10083843 -0.30240318 0.14911927 0.04770195 -0.025793552 -0.21052824 -0.76250017 0.13635553 0.28517678 -0.29124826 0.0398437 -0.19045125 -0.31511658 -0.68065554 -0.066389196 -0.2521319 0.13480568 -0.08261472 -0.06053418 0.1698073 0.315206 -0.033580624 -0.13417503 0.13164814 0.31909454 -0.08138631 0.10569079 -0.010569311 -0.20496531 0.15446943 0.004484558
见 -0.3800925 -0.09926039 -0.07637631 0.0029898025 -0.1985945 0.004990869 0.39510655 -0.27097476 -0.035501197 -0.27699506 0.08640294 -0.063984096 0.23162085 0.14545181 0.2686454 -0.08861076 -0.02707474 -0.35192317 -0.17893252 0.046767063 -0.33195767 -0.09590875 0.123870105 0.392639 -0.0375728 0.09339227 0.15368024 -0.1680357 -0.17846309 0.13899936 -0.17422615 0.05064915 0.18599 0.12879513 0.26880658 -0.22334048 0.64974713 0.22939637 0.25176913 0.34653068 -0.30605203 -0.25083935 -0.33990747 -0.13255042 -0.16174626 0.095920496 -0.1278264 -0.14812823 -0.10760273 0.08833169 -0.35757536 -0.14566053 -0.0145828435 0.32538486 0.09431944 -0.20039272 -0.028083272 0.23150454 0.06284353 -0.20917125 0.055917952 -0.12334015 -0.08349887 0.053609893 0.2039545 -0.08114609 0.3596593 -0.064473644 -0.26271674 -0.23378463 -0.09655112 -0.16066799 -0.15409884 -0.2673321 -0.24196719 -0.6050573 -0.23351434 -0.15039162 -0.24154389 -0.016848385 0.20138712 -0.037919704 0.3713315 0.22604626 0.17371583 0.20252067 0.016367935 -0.13802367 0.08626403 0.25051057 0.23071024 -0.081481054 0.12603657 -0.27382103 0.2864103 -0.33513868 0.057737283 -0.11240939 -0.34210512 -0.01975911
学 -0.26753706 0.23523104 0.378677 -0.29349917 0.42516708 0.056143943 -0.050386176 0.16267517 0.20469414 -0.2030927 0.3377081 0.05901465 -0.07680682 0.40748152 -0.0012147347 0.25418895 -0.044272903 0.18061629 -0.41556513 0.074639626 0.38360053 0.062495634 -0.33979738 0.23803817 -0.29233265 0.15779172 -0.0021763882 -0.24904509 -0.373117 0.5955014 0.18056232 0.14184743 0.24473886 0.09849803 0.3859784 0.21228522 0.27191284 0.22896113 0.1316878 0.21183844 0.10497995 -0.14484695 0.36276728 0.12696591 -0.019974157 -0.09938863 0.088517606 -0.07092254 0.50069046 0.08460328 -0.38675705 0.12021548 -0.027500473 -0.15626428 0.29759574 0.21573624 -0.17588875 0.19562493 -0.11761538 -0.31623513 0.022718381 -0.0567972 -0.0674728 -0.097997844 -0.52862644 -0.18390201 -0.09109735 0.10736548 0.39847484 0.02367946 -0.3544323 0.05991675 -0.05237226 -0.21094286 -0.14783137 -0.8022053 -0.08091439 -0.1315225 -0.060877748 0.18328479 0.005285154 0.09917015 -0.3693878 -0.071431205 0.066816956 -0.114940286 0.1427396 0.2967136 -0.39325073 -0.22984374 0.09098559 -0.016439192 0.051074043 0.013666804 -0.041494984 -0.16839117 0.0335439 0.035578687 -0.19614315 0.07552114
事 -0.59687483 0.07052556 0.38499057 -0.1074799 -0.14912689 0.45002228 0.040765103 -0.12296541 -0.019415544 -0.025061563 0.32554692 -0.31868997 0.27066502 -0.0125558805 -0.032551043 0.02954189 0.12090905 -0.28301108 -0.5334209 0.04517297 0.07467968 -0.03998072 0.12685317 -0.17071411 -0.08053744 -0.15332898 -0.1503204 0.30905238 0.14168103 0.20569566 -0.11692097 0.13889587 -0.47782257 0.036212064 0.08856092 -0.1117872 0.2410356 -0.021508802 0.18576005 -0.2525944 0.1950794 -0.1906687 0.33199608 -0.17598069 -0.07045014 0.10779845 0.020473095 0.20765582 0.05332932 -0.062072318 0.03290355 -0.32863376 0.20438182 -0.18610524 -0.20411646 -0.33823884 -0.22581497 0.38136217 0.3835395 0.130779 -0.09352078 0.05937941 -0.06638889 -0.13352801 -0.16551583 -0.13876416 -0.26236606 -0.13216586 -0.13560037 0.084810086 0.4885693 0.22066054 0.0009825677 -0.29917195 -0.011646618 -0.7845849 0.16631204 -0.029604219 -0.33694825 -0.0014507389 -0.13113722 -0.12403138 -0.093862325 0.08762019 -0.03533516 0.2551379 -0.17259645 -0.022650834 -0.2169122 0.1715168 -0.08655952 0.14080596 0.019170634 -0.2505396 0.27215007 -0.48921478 0.02438745 0.15820436 0.42613077 0.086872436
是 0.4739292 0.015389355 -0.4078526 0.08517189 0.044182356 -0.20103404 -0.31039217 -0.22960854 -0.14397588 0.4076926 -0.20990235 0.24925667 0.23652859 -0.2666416 -0.01209376 -0.09426687 0.008618347 -0.4285049 -0.3777218 -0.46137115 0.06967325 0.11533299 0.14361663 -0.13164333 -0.17176883 0.13915218 -0.02905282 -0.16998906 -0.110121824 0.3363798 0.15339872 0.14602347 -0.23968668 -0.03049947 -0.13482958 0.14624318 0.10155369 0.2844693 0.014346854 0.18388242 0.07361688 -0.06431409 0.282686 0.1497552 0.19698915 -0.07151156 -0.1893184 -0.104859 -0.17077258 0.09611756 0.09312858 0.15312593 0.13256828 0.40630496 -0.014500517 0.2523202 -0.088908434 0.68757635 0.1540561 0.30442512 0.014354686 -0.09430549 0.15227677 0.11819379 -0.012714985 -0.030387186 -0.0046027964 -0.17996445 -0.24461138 -0.2604309 -0.17681162 0.44831797 -0.233594 0.106823295 -0.050699208 -0.3556675 -0.18222198 0.32097402 0.30160904 0.11287843 -0.1505174 0.057954468 0.19428207 0.08546021 0.4058334 0.26408514 -0.14358102 -0.037245452 0.01437494 0.1621359 -0.24899554 0.15734673 -0.29229453 -0.25662637 0.20571168 0.03625793 0.3144364 -0.11302061 0.342939 0.040512532
哉 0.49827766 -0.09092402 -0.040642492 0.0016705897 -0.03142303 0.011757312 0.01721939 0.46536463 0.05495623 -0.041517 -0.076517425 0.06332076 0.49429578 -0.03856816 -0.17924565 0.22429511 -0.1325707 -0.10151556 -0.0833977 0.027419483 0.111201175 0.034190547 0.23679136 -0.25773466 -0.22187418 0.40290913 -0.029856026 -0.21052547 0.1441093 0.07814794 -0.17334718 0.04002317 -0.07907307 0.037675094 -0.0125122005 -0.2531334 -0.015245883 0.20279801 0.022558933 0.22764492 -0.12915763 -0.28314126 0.053744655 0.24051805 -0.1809213 0.287838 -0.36276546 0.08965464 -0.2888808 0.051615655 -0.34822774 -0.24958365 -0.11366496 -0.20192651 -0.26288834 -0.3721819 -0.22979671 0.6150143 0.14157088 0.36960682 0.024784423 0.22539625 0.29041675 0.05194097 0.14811043 -0.08517142 -0.33826655 0.34390706 -0.10767835 -0.013174633 -0.46165755 -0.06798802 0.06758818 0.14385569 -0.21295662 -0.23793091 0.15634833 0.1925726 -0.11885301 0.29609084 -0.31765383 0.010937971 -0.09372651 -0.20301236 -0.44013587 0.008188674 -0.14038715 -0.15438907 -0.2219346 0.15868673 0.09871006 0.33864745 -0.19896209 -0.004506856 -0.0049004406 0.045784656 0.42025757 -0.04186484 -0.2380763 0.11593376
闻 0.019865861 0.1678979 -0.15476023 -0.30067337 0.10491345 0.0987516 -0.107351735 -0.49480334 -0.029090712 0.069896825 0.21390091 -0.050982665 -0.11859051 0.08060068 -0.16601655 0.11096005 0.072642416 -0.18834734 -0.3676783 -0.04529854 0.061668485 0.1827058 0.17279096 0.21788773 0.14918506 -0.19043687 0.21460225 -0.00049254624 -0.10468807 0.38983065 0.21227647 0.18938868 0.45005283 0.27972522 0.045351613 -0.022816075 -0.2015031 0.06257445 -0.539731 -0.45609486 -0.010616804 0.06863605 0.04728898 -0.06541242 0.20615295 0.024238892 0.1574065 0.15794446 0.17520766 0.15375738 -0.20257768 -0.1456964 -0.05516305 0.4403693 0.2177846 0.07118179 -0.3044443 0.5072125 0.06971225 -0.009846703 0.40152523 0.019224089 -0.48604894 -0.12666342 -0.17345922 -0.33343333 -0.077098966 0.40637502 0.057279196 -0.02938968 -0.320058 0.32715145 -0.10690978 0.13985328 -0.029734729 -0.32117268 -0.0930821 0.07330061 -0.35617918 -0.103697315 -0.04523548 -0.04353762 -0.032663003 -0.1566959 0.048751276 0.3328768 -0.007114345 0.06979385 -0.059255924 -0.3663786 0.09734605 -0.32018235 -0.5008269 0.11222399 0.026462812 -0.10218848 0.012964352 -0.040565092 -0.45356426 -0.1685182
未 -0.14729275 -0.15021113 0.14404935 0.2688603 -0.39822322 -0.12436762 -0.1766872 0.009185235 -0.11540129 0.25509217 0.18819942 -0.28770992 0.07920913 0.15059084 0.24945891 0.09780133 -0.15402259 0.06069061 -0.1445605 -0.15158644 -0.06655844 -0.14314616 -0.26327512 -0.3278766 -0.19740438 -0.07168803 -0.33984426 -0.2789845 -0.112714134 0.28686953 -0.323363 -0.03134956 0.114945106 0.23791172 0.016370364 -0.033438094 0.035812903 -0.30847985 0.074714765 0.0731886 -0.41974086 -0.20813814 0.15594944 0.22873108 -0.28803873 -0.2759542 -0.028613592 0.16391137 -0.10929395 -0.10841885 0.018989258 -0.019971061 0.11996595 -0.2777311 -0.05084657 0.011934453 0.1572613 0.27688885 0.10406857 0.13435641 0.3106782 0.18053572 0.011317424 0.09624812 0.014332629 -0.13072756 -0.27310365 0.26415753 -0.13027167 -0.047670595 -0.3361491 0.11078712 -0.18222715 -0.4633218 0.22654967 -0.53588444 -0.19854204 -0.04918599 -0.15488543 0.2310583 0.19984385 -0.107089765 0.124699354 0.3235806 -0.069110915 0.38478756 -0.10777368 -0.25054708 0.042473666 0.18246242 -0.38303763 -0.38872412 0.10892453 0.094149604 -0.19535695 -0.14751583 -0.06740811 0.024607081 -0.3049338 0.008574145
公 -0.10697635 -0.22690554 0.02880005 -0.31946623 0.35038257 0.4444698 0.14595884 0.54473704 -0.19595446 0.24959075 0.322638 -0.109078206 0.31119925 -0.3319862 0.3183715 -0.08837938 0.28809756 -0.016657664 -0.07267308 -0.115056075 0.3865449 0.30260274 0.14273764 -0.14981696 0.7262111 0.11951631 -0.0075578727 -0.11775436 -0.18649712 -0.24966995 0.13433506 0.16269106 0.15343036 -0.13274747 0.28543127 0.23716532 -0.80210066 0.42849723 -0.015094734 -0.35911086 0.21087998 -0.16462609 -0.23477244 -0.24696656 0.59863865 -0.24861471 0.07034146 -0.15578343 0.014708682 0.048066776 0.015412052 -0.12742493 0.009494266 -0.41812208 -0.23927703 0.0717316 0.49630147 0.8039285 -0.14892265 0.073486134 -0.12431608 -0.10080383 0.16635433 0.24402209 -0.26062322 0.00877757 -0.04850272 0.124239706 -0.04408733 0.027902551 0.40189403 -0.3341752 0.004416303 0.06267859 0.38414535 -0.6311715 -0.01757903 -0.17637241 0.24196817 0.23298007 -0.326823 -0.0097096395 0.19267759 0.32451135 -0.19032538 0.12344395 -0.0317882 -0.17852674 0.20869896 -0.114412464 -0.07025147 0.15496229 0.52743334 0.16383405 -0.4353238 0.081753805 -0.06331052 0.04319538 -0.059378423 -0.19925898
好 0.12401956 0.026164297 0.05955811 0.3420844 -0.18896732 0.07300749 0.32433715 0.034415245 0.01492062 0.3713021 0.39175013 0.08716781 -0.23234393 0.5689803 -0.06791788 0.0168151 0.033084895 -0.018199645 -0.4302486 -0.18886764 -0.03640975 0.011752425 0.10337604 -0.07080133 -0.47950184 -0.036120135 -0.040064983 -0.20965602 0.2395801 0.7037235 0.23738462 -0.10207384 -0.3647531 0.10570261 0.61201954 -0.07723611 0.107796736 0.06947804 -0.063352145 0.2913025 -0.2333475 -0.4132788 -0.058710665 0.24420269 0.087999694 0.034191728 0.058265246 0.34410834 -0.35661036 -0.034398317 -0.15075177 -0.09188019 0.25823906 0.15969087 0.16866975 0.1864706 0.074669406 -0.36479405 -0.28068525 0.18859702 0.59451836 -0.24099156 -0.088754304 -0.23413053 -0.09118051 -0.07753263 0.071654074 -0.10571027 -0.45541704 -0.30234236 -0.25134552 0.35181037 0.1663381 0.15982193 0.39557114 -1.005362 -0.0732821 -0.2954947 0.14734967 -0.22384337 -0.147427 -0.022401765 0.05347171 0.40553877 -0.24083653 -0.11913118 -0.06507216 -0.07473186 0.108013384 0.42412478 -0.10641303 0.06026126 0.19860181 0.26098356 0.19479856 0.05672484 0.026608767 0.16876605 -0.49874192 -0.29670274
我 0.24023971 -0.15295841 0.16300696 0.15212172 0.080329895 -0.2846264 -0.12563112 0.05385402 0.032961577 0.0069257393 0.24157165 -0.04527827 0.5803992 0.08985321 -0.04946903 -0.20240894 0.08024762 0.12116511 -0.48619837 -0.14240296 0.23835355 -0.32624096 -0.01182248 -0.31258774 0.25635988 -0.43013197 0.038041346 -0.28715396 0.26342064 -0.16491008 0.025003968 -0.35763612 0.06267707 0.19254692 -0.27493778 0.08286816 -0.28731486 0.4037815 0.16314112 0.3902953 0.36799303 0.14516531 0.18279542 -0.006592145 0.17846563 -0.008252788 -0.1524139 0.0074156746 0.13211568 -0.4060652 -0.18177864 -0.17299093 0.029608175 0.19055843 0.19165562 0.35164773 -0.13241825 0.56162953 0.068943284 -0.045329515 0.11387843 -0.2179392 0.18830882 0.20001426 0.12428513 0.27939108 -0.028299699 0.3847441 0.09379903 -0.13747072 -0.29840088 0.33232352 -0.033765513 -0.025085311 -0.0034785182 -0.4128322 0.2059142 -0.28192952 -0.31202087 0.20702198 0.27477792 0.08600392 0.10034036 0.053021125 -0.13625589 0.21131875 -0.14526212 -0.19672465 0.42370868 0.13175176 0.009132864 0.033431463 0.06084093 0.23349306 -0.26781067 -0.24459136 0.1208959 -0.04771549 0.15203461 0.025505984
路 -0.058696315 -0.25243524 -0.096896045 -0.08780778 0.15559432 -0.13174786 0.2826592 -0.057533477 0.07626093 -0.114859775 -0.34329453 -0.048585884 0.36438516 -0.28300488 0.051412493 -0.33701736 0.11048879 0.20771088 0.13464959 -0.078768596 0.013005886 -0.015966175 -0.33366418 0.18373291 -0.25279707 -0.05125956 -0.13910466 0.21673931 -0.013809874 0.103496514 -0.0068471176 -0.080507606 -0.2441777 -0.14822158 -0.088622175 -0.08133346 0.4419631 0.34788552 -0.19792108 -0.1315725 0.16786897 0.24466576 -0.114147015 0.24507125 0.006606492 -0.29434288 -0.12919323 -0.08106173 -0.02311983 -0.14495514 -0.04727753 -0.2389003 -0.06531925 0.10614728 0.21782357 -0.02830346 0.33279744 0.9731943 0.07667249 0.2451849 -0.1380592 0.08877437 -0.1793783 0.30736718 0.1682887 -0.28119415 -0.1748413 -0.12449606 -0.18878126 -0.1591418 0.055454418 -0.136368 -0.21302693 0.08745947 0.47384867 -0.5602191 -0.00652132 0.280283 -0.049588565 -0.15325646 -0.6833001 -0.16282319 -0.3214843 -0.098723054 -0.11729482 -0.10572711 0.18350315 -0.5269552 0.2325448 -0.08223486 -0.32464498 -0.20783046 0.39309293 0.27056795 0.14820541 -0.28242946 -0.10194822 0.043652534 0.22490586 0.07988224
在 -0.17965548 -0.0740546 0.03171454 0.23871563 0.21900603 0.22873747 -0.3944045 -0.16968688 0.41112182 0.38769194 -0.25197655 -0.11624211 -0.041068614 -0.25379577 -0.1021148 0.22699502 -0.28672737 -0.45958772 -0.39347738 -0.7266862 0.32828647 0.16875678 -0.2114867 0.02071783 0.30385357 0.24498437 -0.13874708 -0.25422457 -0.08182747 0.28982377 0.7341334 0.7161493 0.29988667 0.10555011 0.2533443 -0.23516035 0.07772516 -0.45194978 0.11879957 -0.060545977 0.4749464 -0.003503222 0.0049788263 0.23471417 0.10947473 -0.16184609 0.19447862 0.10263476 0.23833555 -0.24425618 0.5315023 -0.2242302 -0.37804586 0.010451539 -0.10342722 0.002440242 0.10517892 0.12616955 -0.024973081 0.053988144 0.17605717 -0.09568774 0.18515995 -0.081964865 0.19507912 -0.14868215 0.16770403 0.34008667 0.26248682 -0.08414743 -0.0079609165 0.5465824 0.15780199 -0.06424661 -0.19747463 -0.48802978 0.06524219 -0.04696872 0.16945983 0.11210652 0.24561822 0.11881624 0.67078483 -0.064462945 0.33722156 -0.08412906 0.27210724 0.016121693 -0.0895962 -0.010706345 -0.28985927 0.19502029 -0.10640439 0.16058095 -0.11072406 -0.04000496 -0.031524945 -0.26605272 0.27172175 -0.05101873
已 -0.20387627 0.14988446 -0.25811496 -0.0840739 -0.4572026 0.21936813 0.45689234 0.01709669 0.25137252 -0.14261924 -0.055564277 -0.15578644 0.30024782 -0.02940017 0.22861473 0.08010361 0.5097152 -0.26921302 -0.7855145 0.36929026 0.2580893 0.3995088 0.20070061 -0.12400095 -0.3268207 0.16488324 -0.16389158 -0.1396158 -0.12476718 0.22758873 0.23290162 0.06782959 -0.23006126 -0.21332948 0.294626 0.33351 -0.40117627 -0.031306386 -0.02439538 0.5173318 0.04301274 0.40445232 -0.1244372 -0.06312254 -0.28254473 -0.03958348 0.16203715 0.16391295 -0.001136398 -0.1971721 0.0076703206 0.03591048 -0.2339599 -0.08397975 -0.29571238 0.17506987 0.03978024 0.30888283 -0.42870834 0.0711592 0.053771354 0.026685596 -0.24036251 0.21768937 -0.22121769 -0.15928496 0.20557939 0.44233623 0.045474045 -0.38674808 -0.62621605 -0.065066636 -0.2518379 0.022767771 0.3354688 -0.3244452 0.10855914 0.31070682 0.060378984 -0.18008468 -0.21083798 0.0135558685 0.53210866 -0.21933784 0.4376862 0.012415777 0.21027313 0.30238232 -0.3090181 -0.057262573 -0.041593626 0.13557196 0.3674751 0.15240625 0.37175095 -0.17247334 -0.00591684 0.06284666 -0.23964298 0.48279795
得 -0.05295134 -0.14665528 -0.27053332 0.40306252 -0.048522823 0.080903925 0.16953716 -0.510029 -0.061128996 0.12847467 0.11986798 -0.13737193 -0.015683554 -0.48283088 -0.007116412 0.016496463 -0.19079597 -0.11889823 -0.7814462 0.1892825 0.0116833225 -0.38386974 0.008256461 0.35385966 -0.23179258 0.33195016 -0.1592996 0.03668429 0.06394384 0.065763116 -0.004067911 0.09575093 0.23174353 0.28059378 0.18146007 0.09376576 -0.098467045 -0.024178458 -0.0717118 -0.11842193 -0.016018849 -0.04300345 0.0012116944 0.30775976 0.05756394 0.113452815 0.09934804 -0.39021733 0.2678875 0.24443874 0.03771521 -0.24840556 -0.36015067 0.19469945 0.024980875 0.077774644 0.4169009 -0.08674427 0.16182967 0.10563973 -0.16133036 -0.09528971 -0.23505777 -0.051517714 -0.3792827 -0.10682634 0.27540198 -0.039262466 -0.15061028 -0.15688297 -0.026673071 -0.050017178 -0.32474744 0.24187364 0.16972041 -0.3526743 -0.43152475 0.4231181 -0.12850392 -0.49675518 0.38936427 0.039170057 0.22991283 0.09773105 0.39402568 0.4208299 -0.11078246 -0.13007739 0.036579415 -0.29065922 -0.17023669 0.28920197 0.050219655 0.28811175 0.1573804 -0.2514855 0.04422778 -0.113139935 -0.38235325 0.071869634
所 0.1092121 0.42353415 -0.30386093 -0.02576682 0.046612345 -0.15203471 -0.06741463 0.053769033 -0.08688531 -0.074922845 0.13020238 -0.16444801 0.1821348 -0.24425115 -0.09264956 -0.35801947 0.06660613 -0.09400475 -0.4441486 0.113714956 0.034705997 -0.0007015718 0.09539046 -0.29729888 0.15195416 -0.01745427 0.3216268 -0.2946637 0.15965293 0.27604064 0.42106682 0.20827599 0.0826967 -0.21250208 -0.0067915674 -0.050258953 0.03217576 -0.23501539 -0.01980738 0.18238442 0.6314329 0.003315888 -0.07524071 -0.32582587 -0.15797432 -0.030785412 -0.15454166 -0.06841644 0.021408848 0.05858674 0.067441545 -0.031910777 0.036004864 0.5137209 0.17276564 0.003778302 -0.2404991 -0.24368171 -0.029616468 0.2650006 0.47981238 0.39709994 -0.15652712 0.31286886 0.24723655 -0.22581251 -0.13421257 0.35242954 0.28653756 -0.23318616 -0.38410237 -0.23479742 -0.070733435 -0.20144878 0.25581828 -0.6453644 -0.22636159 0.13965839 -0.15436973 -0.16279735 -0.23447464 -0.08984245 -0.074246936 -0.116660535 -0.120347425 -0.0136454 -0.030337617 -0.11710926 0.5923464 0.023770891 0.087550156 0.21996099 -0.09874285 0.09891405 -0.2359355 0.005627757 -0.28409803 0.14485165 -0.04506608 -0.041771557
民 0.20888962 -0.1355373 -0.0074827494 0.07912075 -0.20507699 0.18988048 -0.15655835 0.523941 0.08109712 0.1898603 -0.1723717 -0.12817755 0.15000969 -0.093350485 -0.17512187 -0.26848042 -0.21412885 0.20708579 -0.50595343 -0.02928606 0.08974962 -0.04459593 0.23319294 0.11783798 -0.17959172 0.34652233 -0.11302423 0.31234226 -0.23609444 0.08393091 -0.044015776 0.005261929 -0.24416381 0.12870795 0.17960161 0.00025107805 0.42513674 -0.0660002 0.13252251 -0.22943416 0.1588418 -0.19986513 0.061859563 -0.1279124 -0.26912788 -0.29299608 -0.28012276 -0.100484625 0.091781504 -0.011162287 -0.2714814 0.4249341 -0.21866266 0.36457682 0.04804164 0.03446027 0.026398461 -0.030597258 0.07022483 -0.13829182 -0.1275341 0.034585692 -0.11906235 0.48395145 -0.5076458 -0.101827204 0.14112695 -0.13157316 0.0030761778 0.3014979 -0.14202641 -0.17198442 0.011036282 0.32162505 0.11151827 -0.56942505 0.008251444 -0.19801491 0.08998573 -0.18195695 -0.06351897 -0.20421077 -0.3048952 0.262276 -0.19329445 -0.38899073 0.028331084 0.4365457 -0.2755763 0.042836014 -0.14077814 0.2775236 -0.21729168 0.31193683 -0.36751905 -0.16018698 0.41739428 0.039197177 0.062368903 0.059542954
小 0.07395884 -0.4832813 -0.05707679 0.35365972 -0.0879918 -0.082896166 0.063912906 0.16761398 -0.095617406 0.31596345 -0.14512266 0.33332556 0.48114038 0.34678918 -0.05286812 0.14724553 -0.2664629 -0.13486114 -0.29701957 -0.008069922 -0.5230999 0.09618434 -0.121104956 0.31407833 -0.21186717 0.20841643 0.027084466 0.04689684 0.029155957 0.007446303 0.2938184 0.07156538 -0.06978336 -0.09438494 -0.13833639 0.012653875 -0.048481483 0.081968516 0.26391348 0.1612018 0.049826145 0.14721218 -0.25326815 -0.48071074 -0.28567457 -0.25592658 0.3913004 -0.24075517 -0.24511087 0.13292484 0.06881938 -0.10004749 -0.30295312 -0.226879 0.22593065 -0.046695247 -0.18069704 0.25531143 0.070219524 0.20289876 -0.08402085 -0.0723084 0.34068832 -0.13552201 -0.26926884 -0.014943246 -0.22480711 0.028612249 0.34673804 0.048213325 -0.0091940425 -0.18153068 -0.13573755 -0.393091 -0.4784531 -0.7343041 0.46663237 0.20079157 0.24275292 -0.13366447 0.047088355 -0.117210604 -0.054478228 0.13991824 -0.32605594 0.0027084996 -0.41027093 0.13000104 0.010230454 -0.45284045 -0.13027966 -0.13384844 0.20501718 -0.4167108 0.07668141 0.058947533 -0.18813373 -0.12770316 -0.026839148 -0.041273396
天 -0.23210073 -0.51468945 0.15454713 -0.461377 -0.13930061 0.010698102 -0.15613683 -0.36734724 -0.15326019 -0.012767495 0.18289924 0.22994126 0.58176845 0.15396222 0.050218876 0.25893074 -0.6214531 -0.24841666 -0.20609869 -0.2930086 -0.029074974 0.07748212 0.122609854 -0.2870178 0.10549305 -0.5559659 -0.14665714 0.19487959 0.12788054 0.33908242 0.18987635 -0.69105405 -0.25917888 -0.18273178 -0.29412732 0.09055815 0.043428905 -0.12335943 0.06637409 0.06137714 0.33575726 0.15896416 -0.02230258 -0.03147025 0.12241624 0.20399758 -0.095794335 0.054813694 -0.15648039 0.20382674 0.0019235127 0.044445947 0.007131786 0.4639727 -0.46228468 -0.026827421 0.27539313 0.054605696 0.32460105 0.01803698 -0.52492654 -0.10139124 0.15264498 -0.12733474 -0.27729368 -0.08351429 -0.41287565 0.25031543 0.14523238 0.05360937 -0.36682972 -0.3391457 -0.052216243 -0.32153213 0.19629465 -0.46202138 0.22005677 0.24224728 0.5380529 -0.20911168 -0.20165992 -0.40216735 0.014016377 -0.14126638 -0.32563612 -0.35830277 0.090108395 0.099872425 -0.044342265 -0.5081409 0.39907482 0.10073227 0.04642408 0.088910945 0.03309955 0.021213911 0.21465673 0.09709205 -0.3997079 0.11588418
乐 0.23164971 0.091447264 -0.16624136 -0.08578419 -0.0017613154 -0.49483803 0.28609478 0.39795592 -0.25578728 -0.14514524 -0.04050863 0.4354944 -0.43349868 -0.14960025 0.52317935 0.01808931 -0.48717564 -0.031533025 -0.4442474 -0.042831533 0.31278178 -0.13348767 0.24778888 0.23123184 0.16771224 0.5647287 -0.13306123 0.09170401 0.11807649 0.5537226 0.16314383 0.1744459 -0.20912866 -0.25358984 -0.24323526 -0.091159865 -0.07434959 0.003930318 -0.09884609 -0.38770175 -0.091276355 0.40636742 -0.0016826724 -0.15734424 -0.31285924 0.18457863 0.050388504 0.39381522 0.32571125 -0.20287932 0.29402104 0.08204957 0.22783373 0.08803735 0.11457472 0.12627967 -0.2781946 0.2740183 -0.21582621 0.057091884 -0.021365099 -0.09194949 -0.03449771 0.29742068 -0.013763669 0.15156505 -0.23444057 0.28743383 0.28564242 0.05728562 -0.4070401 -0.074409395 -0.04253467 -0.21248679 0.16651176 -0.69268113 -0.05069703 -0.21229838 -0.53341836 0.021783544 -0.21950671 0.10269667 0.16208279 -0.03354259 -0.018220589 -0.19481395 -0.27448955 -0.16613989 0.008385209 -0.23061477 -0.19239163 0.32877177 0.12394657 0.06573015 -0.21627425 0.20321587 -0.07289489 -0.030352497 -0.43643847 0.029298007
邦 -0.04096072 -0.48276657 -0.10684815 -0.18085381 0.059376456 -0.28643 -0.03739743 -0.34890237 -0.059433285 -0.13932164 -0.18281166 0.13982879 0.2537101 0.5750831 -0.370788 0.044810526 -0.3252601 -0.14859655 -0.50843424 -0.28167948 -0.21229038 0.049491692 -0.6560191 0.57135844 -0.0026604426 0.30813727 -0.3162481 -0.089120135 -0.41663024 0.27440232 0.36989075 0.18010241 -0.42976823 -0.11347053 -0.072109304 -0.1553293 -0.083035216 0.07024737 -0.3509257 -0.043257475 0.04101746 -0.06839699 -0.03376867 -0.1253724 0.028233446 0.11866803 -0.1256795 -0.2458125 -0.32368886 0.35640103 0.11962774 -0.15739642 -0.13077663 0.13643053 -0.07702863 0.09483615 -0.23157544 0.4451606 -0.046918314 0.03439747 0.21868737 0.21406649 -0.01530939 0.51031864 0.08620327 -0.07302725 -0.01993796 -0.1666231 -0.12919238 -0.1445604 0.060258627 -0.20356485 0.45130673 -0.21033435 -0.07181804 -0.3753337 -0.027097266 -0.011585745 0.08424476 -0.44256705 -0.13385758 0.07274622 0.67994 -0.33382845 -0.27918953 0.0017441749 0.007860392 0.06039755 -0.05159866 0.13402107 0.13885975 -0.26343948 0.27839184 0.21122012 -0.282163 0.35476357 -0.013455375 0.06277429 0.24769184 0.099204786
亦 -0.301045 -0.28168604 -0.1315988 -0.43857282 -0.1262188 -0.14997558 0.095029816 -0.43777326 0.35477227 -0.09856584 -0.12568542 0.5106879 -0.003201551 -0.11691384 -0.18434142 0.134487 -0.25958183 0.20307656 -0.03239665 0.0912495 -0.15866841 0.21809343 0.31594545 -0.081658274 -0.21112165 0.1780048 0.13662621 0.21456268 0.06385491 0.18913971 -0.0021187714 -0.11574228 -0.05957193 -0.1887323 -0.1654937 -0.06071485 0.14807072 0.0016669662 0.056063846 -0.020481465 -0.040033646 -0.11738872 0.07602547 -0.04756828 -0.079044655 -0.21687812 -0.25967893 0.14517844 -0.27194184 0.26822746 -0.31632316 -0.514348 -0.018644782 0.40432253 0.07969299 -0.26540142 0.39525992 0.3164184 0.35876697 -0.13502857 -0.15549687 -0.009979853 0.07128227 -0.11630213 -0.02157605 0.13794124 -0.16848211 -0.32181832 -0.07963676 -0.015880482 -0.093088165 -0.039661005 0.023331756 -0.1260841 0.04057593 -0.8204121 -0.17753722 -0.014175424 -0.09748183 0.5453597 0.16672912 0.10618056 0.048044525 -0.46285895 0.03233747 -0.007344966 0.25316668 0.38564014 -0.16308382 -0.1644859 -0.35780308 0.02611857 0.016928043 -0.48751575 -0.29256338 0.3599055 0.5975031 0.08127573 0.0596999 0.019808933
使 -0.010515807 -0.17402671 -0.5039649 -0.16477737 0.04243286 0.14987947 -0.06799102 0.479999 -0.029373944 0.17831941 -0.3434718 -0.13518274 0.087454475 0.34749794 -0.15415692 0.45706564 -0.074361734 0.10942356 -0.34169024 0.24761462 -0.07561137 0.14871815 -0.53696865 -0.5134596 0.019501599 0.1157341 0.15383475 0.08889545 -0.23095818 0.5416571 0.070435844 -0.15213159 -0.06408502 0.21559934 -0.0042021573 -0.14932586 0.44370425 -0.36170805 0.14552999 0.30833155 0.4570842 0.37841916 -0.13892978 -0.096802115 -0.24770997 -0.064406924 -0.4092954 0.28913698 -0.122357585 0.10564558 -0.12344826 0.13851401 -0.15421441 0.21602735 -0.065116525 -0.23580572 -0.20437847 0.08679933 0.08299848 0.23209657 0.3570799 -0.33967578 0.021518683 -0.09437498 0.009038765 -0.17942737 -0.021713264 0.5032968 -0.26259178 -0.3020293 0.1914035 -0.24532229 0.060138203 0.1486459 0.08209519 -0.5409754 -0.07829803 -0.19523616 -0.23898584 0.078194246 -0.33592007 -0.004211168 0.15550867 -0.0055061826 0.15867066 0.1349932 0.42396852 0.0054284977 -0.15774779 0.016839162 0.1381082 0.18357635 -0.11292839 0.15889062 -0.15920672 0.015725456 0.23861343 -0.10058458 0.23528072 0.006262278
大 -0.26345015 0.0022639781 -0.07657034 -0.10448159 0.19187795 0.08571833 0.2179828 -0.4150629 -0.017015187 -0.12739204 -0.102888376 0.4096104 0.42004645 -0.11740473 0.21766725 0.033651102 0.045544647 -0.1279031 -0.42169595 -0.15260898 -0.35366547 0.06372822 0.2018486 0.092317395 -0.071395986 -0.21034352 -0.12261592 -0.11066927 0.23656243 -0.04865787 -0.27605692 -0.1149816 -0.48227397 0.40957043 -0.3308857 -0.04985447 -0.055751525 -0.18666217 -0.014946967 0.12436537 -0.14280385 0.17517169 -0.030160978 -0.012649012 0.10948801 -0.017111827 -0.16713943 0.30280337 0.11417897 0.013035227 -0.07565251 -0.1990312 0.17348072 -0.5715495 -0.042053 0.11399939 -0.27645662 0.116369486 -0.093391344 0.13909765 0.21237132 0.046522506 0.24302563 -0.5027062 0.094106644 -0.11775593 0.36479327 -0.11201922 0.08473733 0.21523312 0.04501973 0.23332809 -0.14756109 -0.14513461 0.22506444 -0.54548806 -0.22123025 -0.6156307 -0.04846626 -0.19104184 -0.4400085 -0.13421048 0.053480797 0.32217792 0.41083556 -0.21598828 -0.45505625 0.34666708 0.0026913034 -0.5507872 -0.36651734 -0.12019775 -0.14964317 0.0044906912 -0.027109072 0.09355647 0.009688364 -0.17959683 -0.062983155 -0.2815417
下 -0.35862142 -0.24199292 0.1984264 -0.07959752 -0.27914852 -0.34843493 -0.31890723 0.27423015 0.35721675 0.07418217 -0.14119922 0.2093148 0.62487483 0.34962085 -0.05292793 0.07080254 -0.18754256 -0.2088713 -0.42256695 0.047663365 -0.60785383 0.12528746 0.38374352 -0.4472509 0.02124461 0.23943062 -0.15229759 0.07994008 -0.094453685 0.2388242 0.23390138 0.084394954 0.1614165 0.19722788 -0.22802308 -0.1390828 -0.11046283 0.021667423 -0.29207817 0.2037224 -0.13674933 -0.17684405 -0.4692664 -0.4390794 0.12818505 0.1886312 -0.4517695 -0.18342124 0.46241257 0.18253754 0.17610635 0.031616963 0.14007199 0.17228022 -0.058199614 0.31888717 -0.122611 -0.11918061 0.22110426 -0.23778975 0.12698995 -0.2331182 -0.18067957 0.13272868 -0.25828254 -0.104570396 -0.30300465 -0.0063320557 -0.4244869 -0.105957784 -0.19486718 -0.24213898 -0.1302015 -0.27778617 0.063225426 -0.51857275 -0.14856917 0.052844774 0.49323067 0.06788188 -0.12829848 0.008288749 0.11162016 -0.025415149 -0.40944037 0.038331844 0.17307407 0.43544254 0.2605064 -0.18527555 -0.08254164 0.15893748 -0.092700064 0.034827445 0.022586435 0.20858075 -0.2894605 -0.043421146 -0.0018976294 -0.050260935
贡 0.13963898 0.3210717 0.44640908 0.2810136 -0.036998052 0.44708002 0.3221279 0.0820899 0.30500036 0.38362175 0.54758286 -0.059901148 0.712106 -0.21537913 -0.15380244 0.24456824 0.043414984 0.13172686 0.15719612 0.27414012 0.011725541 -0.33179504 -0.24714586 0.0780866 -0.19004263 -0.37069666 -0.025152776 0.04696919 0.14883447 0.008176748 0.0074881427 0.1368314 -0.09776683 0.27127382 0.09260762 0.16901049 0.051309697 0.12764123 0.22352429 -0.18959785 -0.31864086 0.06762437 0.26937857 0.012889329 -0.17014953 -0.13142046 -0.05091513 -0.15280963 -0.29750115 0.08917568 -0.43608728 0.07156328 -0.099032365 0.077352904 0.5371317 0.54601336 0.012290794 1.5840018 -0.03782072 0.060395386 -0.57540387 0.37578914 0.7395886 -0.08279771 -0.1475168 0.29894522 -0.026168851 -0.07349072 0.018427592 -0.09724069 -0.3606033 -0.06987612 0.44983444 -0.03648214 0.5908484 -0.41546246 -0.027373675 -0.26423264 0.044334773 -0.34616247 0.13924287 -0.05757095 0.25261965 -0.12820251 -0.089260966 0.2184964 0.0056710597 0.18794133 0.0888093 0.14265858 0.04365136 -0.20408115 0.30456606 -0.26332194 -0.07269234 0.16488804 0.29315886 -0.055062015 0.23871471 -0.26294225
欲 0.26399764 -0.114168495 -0.32184976 -0.09925488 0.30429325 0.54357386 -0.0027893079 -0.3771514 0.16169403 0.2586598 0.008804144 0.17026326 0.59020513 0.16644098 0.2119844 -0.13644975 -0.35986805 -0.09962092 -0.14477755 -0.109573565 -0.33995834 0.00039249845 0.11878252 0.0806876 -0.08126615 0.15289718 0.15483417 0.169357 0.09932474 0.36815822 -0.009191545 0.10655617 -0.10905973 -0.022003734 0.033794265 0.4833717 -0.13499036 -0.17241819 0.29438272 0.18149818 -0.15266068 -0.1574441 -0.28650233 -0.12314565 0.09854662 -0.28152207 0.36063752 -0.20511639 0.50802135 -0.1431964 -0.2796781 -0.16538796 -0.07595878 0.2285953 -0.14430687 -0.08017855 0.073049605 0.37491098 -0.04939232 0.16232964 -0.01717958 0.0133168 -0.06112227 -0.04526834 0.25622734 0.11537207 0.07383638 -0.23104502 0.45247468 0.014452265 0.16410072 -0.23092617 -0.25541803 -0.05089579 -0.007608381 -0.6217707 0.003810371 -0.3189221 -0.0964826 -0.23304228 0.31517273 -0.12455981 0.18911803 0.47668594 0.12509722 -0.42564857 0.044131655 -0.5962721 -0.11374502 -0.39474842 -0.228249 0.10103657 0.26222774 0.27423695 0.47224608 -0.16715261 -0.19379306 -0.06410698 -0.073532306 0.038054504
诸 -0.033455994 0.30610782 -0.47540674 -0.13532744 -0.060398545 0.09259561 -0.032377243 -0.11359152 0.12959227 0.22960414 -0.20192766 -0.28456315 0.24580306 -0.025583234 -0.2829314 0.042013496 -0.20391065 -0.25534698 0.13640557 -0.17951886 -0.5000937 -0.2651286 -0.08891625 0.25116652 0.020243026 -0.03324162 0.050435353 0.5345901 -0.015103467 0.3014863 0.26873478 -0.06883131 0.48313498 0.10404087 0.25483176 -0.41640526 -0.11436916 0.23481424 -0.16832751 0.17799236 0.2449927 -0.3410524 -0.024150226 -0.07215881 -0.5722105 -0.35882738 0.46054116 0.28046322 -0.23711072 0.07648593 -0.19414684 0.06913078 0.3615527 -0.17760915 -0.57372886 0.013208017 0.34607562 0.40020037 -0.15937431 0.10879687 -0.068138756 -0.6297834 0.36072645 -0.0016774968 -0.09017354 -0.10075102 0.2737174 -0.2201068 -0.050422136 0.18650591 -0.044845756 0.13901845 -0.21845612 -0.033995774 -0.045954682 -0.4825063 0.10293971 -0.01941532 -0.35866097 0.36762068 -0.7257901 -0.0032572858 0.09864032 0.06623678 0.091105714 0.17234276 0.36157376 -0.21716703 0.004795882 -0.09571291 -0.39216664 0.1090561 0.27561724 -0.1907387 0.0017054114 -0.58608943 0.048916135 0.23664287 0.40282777 0.34954882
从 -0.11533563 -0.4257743 -0.046477783 -0.15820967 0.03342446 -0.23633961 -0.012520518 -0.092705846 -0.07712584 -0.29181114 0.11977552 0.0025686417 0.3251409 -0.25562224 -0.40742683 0.23395424 0.04208388 0.21876667 -0.7522452 0.14197052 -0.0019406443 -0.122068174 0.41722092 -0.18700197 0.14696774 0.22305055 0.18229024 -0.25896415 0.13977922 -0.1476369 -0.25969774 -0.008019249 -0.075706154 0.43200183 0.19088633 0.22309887 0.06613292 -0.23519322 0.46641836 0.040231958 -0.29834348 -0.12504828 0.18676977 0.18160792 0.30507714 -0.33546618 0.19602643 -0.17426294 0.059071284 -0.10422045 -0.39964446 0.39132938 -0.23904032 -0.22423543 0.4790582 -0.043419648 -0.39337966 0.38775545 -0.0649114 -0.009652211 0.08914865 -0.099983595 -0.14039482 0.22631562 -0.3307296 0.0809311 -0.124850206 0.21066457 -0.29860136 0.027303211 -0.344529 0.62478286 -0.2407563 -0.017861089 0.12833767 -0.44672027 0.10686475 -0.09639625 0.112956874 0.24357706 -0.0032587582 0.06750346 0.072096966 0.21113205 0.038858116 -0.24768929 0.055181947 0.037368443 -0.19307111 0.29117653 -0.35123232 0.12882642 -0.23878258 -0.025154505 0.017444255 0.12173175 -0.01826326 -0.27553916 -0.020162966 0.3215237
文 0.2444144 -0.36933407 0.094224475 0.26904348 -0.05972485 0.037199993 0.16741444 0.082417145 -0.038895395 -0.13685472 -0.26383945 -0.06604159 0.30247268 -0.022982195 0.2639887 0.32566133 0.028795067 0.009429758 -0.24467202 -0.47163653 0.061141152 0.08360357 0.41463628 0.15288658 -0.36362413 -0.19009419 -0.19495052 -0.03696929 -0.4538372 0.30012617 -0.12831132 -0.19761595 0.33567035 0.28048596 0.26702738 0.10158551 -0.1283943 0.12474045 -0.06420666 0.1437676 0.27496585 -0.0681189 -0.18022752 0.016317347 0.297019 0.1707813 -0.09947995 -0.47082955 -0.17341527 0.106359795 -0.056976117 -0.10373261 0.26300728 -0.19377042 0.11905308 0.04230559 -0.07123967 0.5860274 -0.3227357 -0.34969002 -0.11002345 -0.0037158844 -0.14781636 0.24067323 -0.26856005 -0.12910894 0.10321989 0.069466196 -0.20881502 0.23823904 -0.0963779 0.26223138 -0.06861488 -0.1298034 0.11643518 -0.25093192 0.14668639 0.047236003 -0.04507688 0.59152335 0.19091319 -0.10489124 -0.48101625 0.050579228 -0.35221213 -0.10599224 -0.25344056 0.0039799334 -0.117834106 -0.1512299 -0.36553776 -0.34326914 0.10570463 0.07981036 0.14691325 -0.096314475 -0.3881548 0.092072695 0.43468714 -0.11053543
政 0.0886192 -0.17367025 0.4851568 -0.11843531 -0.09309893 -0.016539179 0.08091938 0.152949 -0.2678474 -0.15019837 -0.050843965 0.36622843 0.1943095 -0.34389395 -0.4255294 0.32872838 0.0052099572 0.27882826 -0.1102223 0.36021826 -0.02010324 -0.4289924 -0.29895216 -0.37489757 -0.45105767 0.06198449 -0.2343901 -0.22117157 0.079754695 0.16909233 -0.03209532 0.37713954 -0.4892351 0.033413343 -0.23381025 0.23949505 0.03225849 0.22560774 -0.10207843 -0.118307315 0.03426867 -0.39296898 0.17895502 -0.3254669 0.50583446 0.4961453 -0.24902895 -0.22578703 -0.17457403 -0.29735675 0.08034718 -0.0145617835 0.14039087 0.12674274 -0.19101568 0.05874414 0.117670864 0.8467362 -0.08298589 0.18118186 -0.05085184 0.20067826 -0.22345358 -0.24580574 -0.24977233 0.0057460833 0.33722183 0.32927695 0.16001548 -0.25922745 -0.21153176 0.17549455 -0.32720706 0.2835568 -0.0065717055 -0.22816662 -0.15095542 -0.17015502 -0.08572838 0.068448946 -0.1153959 0.3782715 0.41646126 0.024930654 0.33022597 0.04875946 -0.33398506 -0.11105565 -0.01708642 -0.38852653 0.19910306 0.09963433 -0.29064468 0.08548918 -0.028977428 -0.0732896 0.056453895 -0.08891663 0.33424205 0.22710243
食 -0.23430674 0.05959203 0.13097906 -0.21193387 -0.26610833 0.10739323 0.11738704 -0.025771292 0.26111087 -0.33628422 0.023746297 0.17411458 -0.2242934 -0.32698995 0.27015102 0.15192781 -0.25498828 -0.23819941 -0.25375906 -0.05811379 -0.3259237 0.35245976 0.28086627 -0.11516029 -0.13712081 -0.12588158 0.008118525 -0.19477867 0.05535153 0.49612916 -0.22026324 0.19919439 0.50237805 0.27428025 0.12686148 0.25205916 -0.12080526 -0.32254556 -0.9314265 0.26128346 -0.030818932 -0.07368413 0.15952125 -0.14798503 -0.18857105 -0.37740815 -0.50600016 -0.38227257 0.03847903 0.08865687 0.11186736 0.48346356 -0.10291174 -0.18071337 -0.02093126 -0.27280578 0.31833127 0.10788619 0.19175108 0.5330489 -0.14357774 0.19831395 -0.13080809 0.2302093 -0.4058054 -0.07329614 0.105876125 0.047570154 -0.22865386 0.0906606 -0.14640807 -0.043888476 0.12724665 0.40488133 0.045188263 -0.778428 0.13333097 0.16246192 -0.008847382 -0.5431312 0.12122465 -0.19269402 0.19187537 0.0032555219 -0.17336193 -0.27652234 0.09838525 -0.56521666 -0.06640144 -0.5023368 0.25997695 -0.44193354 -0.020604426 -0.008359258 0.23738852 0.7072238 0.55746174 0.1001793 0.11371906 -0.09272388
善 -0.11428124 0.02194321 0.24954267 -0.024226556 0.13059741 0.028738992 0.4294487 -0.11023459 0.14455293 -0.23547739 0.42737314 0.12563702 -0.09656385 -0.06456691 -0.15295337 0.21275152 -0.088244855 -0.14381886 -0.21631329 -0.17747876 -0.10652942 -0.073487416 0.10365828 -0.18390809 -0.05126755 0.103664175 0.1517682 0.13322482 -0.0013685189 0.44627863 0.087537676 0.21921635 0.1821276 0.033515282 -0.008336227 0.64064515 -0.0015917625 0.2820257 0.14514124 0.26419434 -0.34170127 0.030763369 -0.4013658 -0.22294714 0.22871481 -0.022936378 0.31031626 -0.48114228 0.15640257 0.19287024 0.27333748 0.18882726 -0.10277535 -0.11483355 0.059749924 -0.06641642 -0.18051139 0.24485746 0.25891623 0.48063633 0.020324543 0.28443453 0.4477967 -0.11468801 -0.027685123 0.17882453 0.043658823 -0.35807535 -0.20258328 0.087914936 -0.23450048 -0.58956516 0.02919484 0.094746605 0.16580048 -0.38152775 0.03845035 0.22722584 -0.050157756 -0.10447802 -0.058237337 0.17954999 0.2423202 0.043807514 -0.15175965 0.11157473 -0.039214958 -0.014842516 0.07785146 0.0033488912 -0.22035104 0.2278474 0.14213715 0.1716523 -0.16349223 -0.3914288 -0.006811489 0.21332945 0.15835658 0.03985444
后 -0.17335457 -0.0044277897 0.17632692 0.0853464 0.060878098 -0.1713574 0.059667848 -0.0011038037 -0.15040854 -0.07646482 -0.331802 -0.08210799 0.3977419 -0.18598954 0.10122869 -0.06278402 -0.09772277 0.04880383 -0.3168883 -0.22648238 -0.0851524 0.0751831 0.09420156 -0.3522308 0.24027646 -0.0084587205 0.08128854 -0.21667078 -0.02353714 0.31320047 -0.09240941 0.20487349 -0.028913548 0.29375598 -0.069891825 0.09817755 0.05581556 0.7604488 0.054852404 -0.12436465 0.23621437 0.026496824 0.18659543 -0.060494334 -0.19491354 0.25523436 0.08194492 -0.22981414 -0.26315594 -0.20823154 0.07507871 -0.21087083 0.14726463 -0.64075595 0.017251845 0.20571521 0.29330423 0.17972976 0.20921063 -0.10395316 -0.119017616 -0.19604868 -0.3059221 -0.6439324 -0.2185376 -0.015789099 -0.33385947 -0.07047562 -0.39723903 0.3587582 0.010560051 0.2968169 0.03418251 0.0061427886 -0.01585159 -0.50807405 -0.045356195 -0.2660084 -0.12871239 -0.44132015 -0.11625232 -0.0109397285 0.015657729 -0.36629924 0.34541014 -0.0009519283 -0.035575714 -0.14152817 -0.7588172 -0.3960523 -0.019835688 0.27247924 0.18197758 -0.0032601077 -0.1829717 -0.11291843 0.39813426 -0.035337195 -0.24251086 -0.52982116
德 0.15396783 0.082769476 0.005832498 0.05411906 -0.1097791 -0.06664002 -0.12911369 0.18835767 -0.6769913 0.109250806 -0.07820702 -0.15196656 -0.0942992 0.38300923 0.19666307 0.061744437 -0.13768509 0.09649263 -0.15052722 0.08021768 -0.04130161 -0.08820856 -0.051559664 0.14552805 -0.16680962 0.09417495 0.07027022 -0.16956156 0.047774967 0.45792472 0.02511811 -0.27972603 0.111862585 0.00017789192 0.07417285 -0.45656925 -0.16520655 -0.13232318 0.15000123 0.08300429 -0.1533174 0.062809564 0.5132041 0.055082858 0.021268504 0.010019768 -0.1076209 0.41557708 -0.2935569 0.10674613 -0.2631448 0.11945399 0.27743235 -0.07156309 -0.27703542 0.294007 0.12375982 0.35181728 -0.34276122 0.03420571 -0.41201073 0.40234885 0.030725926 -0.10841527 0.08088673 0.1483418 0.2377983 -0.7152448 0.15176588 -0.19552006 -0.40654203 0.051922053 -0.19466574 -0.22829628 -0.10306718 -0.48240662 -0.08761281 0.33304894 -0.24050172 0.19490242 0.33679664 0.32923418 0.26262808 0.3502018 -0.0063619222 0.039443977 -0.14419237 0.27773017 0.37191436 -0.24023603 -0.037962012 0.29310313 -0.21795994 -0.27128044 0.123441994 0.11886788 -0.50346327 -0.030721787 0.02202554 0.14964591
求 0.438301 0.30677655 0.30892643 -0.036398422 0.25580007 -0.023449993 0.058144175 -0.28172275 -0.19744052 -0.4372375 0.081562676 -0.14867271 0.019620137 0.33828315 -0.032169342 0.02082736 -0.045462232 0.21796186 -0.47896275 0.18200311 -0.55899155 -0.1879243 -0.18295465 0.083110936 0.17994289 -0.51091164 -0.35188785 -0.21503818 0.110187285 0.15763159 -0.31733847 -0.09854043 0.05810052 0.23435573 0.1468902 0.22440113 -0.023766454 0.47300243 -0.2560952 -0.44842923 0.016853403 -0.16193587 -0.120967425 0.07828719 -0.05433563 0.0086224405 -0.18943408 0.47536063 0.28213134 0.09839467 0.005199097 0.28463042 0.4119163 -0.30147186 0.12678188 -0.19952485 -0.16193464 0.4899778 0.15698764 0.31926727 -0.23000066 -0.40460354 -0.37284473 0.13523015 0.13646573 0.43094045 0.04673963 -0.048626706 0.031374928 0.092438854 -0.29556474 0.2506624 0.47938964 0.068806425 -0.3082116 -0.29333186 -0.04907342 -0.03128982 0.12172986 -0.28064397 -0.4041174 -0.033504102 0.14428325 0.3088861 0.39369735 0.22512728 0.23279303 0.3235386 0.100650616 -0.11817409 0.032073006 0.10207515 -0.13232036 0.38771838 0.51479095 -0.1659676 -0.38971612 0.16080736 0.007174746 0.007873103
对 -0.014259022 0.39446643 -0.36577564 0.1507227 0.34484434 -0.20936462 -0.24422397 -0.04223813 0.37127328 -0.03688413 0.28831518 0.3158868 -0.19700517 0.03381255 -0.18001446 0.11223643 -0.45415518 0.14269978 0.06728522 0.085818544 -0.24236692 -0.07888396 -0.090269305 -0.3103407 -0.42767718 0.16638036 0.46942675 -0.01904431 -0.26217157 0.10386641 -0.18212934 0.2624847 0.120822325 0.03761565 0.04241787 0.1674698 0.055871706 0.3032334 -0.0028552664 0.24846484 0.06708417 -0.25069135 0.3527308 0.09852861 0.1195866 0.0934362 -0.13316321 0.10946936 0.059955664 0.33673993 -0.30249748 -0.0025330484 -0.04052594 0.116684034 -0.0995631 -0.07733678 -0.09544167 1.1824976 0.24183209 0.064552695 0.14750789 0.1500898 0.22616003 0.009855011 0.2588667 0.08918341 -0.24203743 0.26082912 0.16406836 -0.09627629 -0.57256013 0.12804359 -0.15825996 0.08732286 -0.084433645 -0.5321646 -0.16454212 -0.2209028 -0.062068965 -0.08993254 0.22007026 -0.15157533 -0.21058197 -0.18044282 0.146614 -0.069685616 -0.1439889 0.3048734 0.22760569 0.45718288 -0.04076356 -0.11426116 -0.22071859 -0.33544323 -0.20106761 0.03738025 0.023869248 -0.21577342 -0.06044409 0.020652888
恶 -0.3920673 -0.03090771 -0.099403165 -0.09338672 -0.11058455 0.053865295 -0.22168759 -0.1307147 0.13518833 0.20719291 0.018430555 -0.0040565454 0.28263834 0.39993295 0.16881818 -0.038032286 -0.20564264 0.13010167 -0.40283188 0.40028977 -0.23934181 -0.24274571 -0.09028634 -0.37943724 -0.13152444 0.46913466 0.20969936 -0.00404308 -0.039147552 0.03895402 -0.09692026 -0.17308676 0.14138621 -0.08261119 -0.012670124 -0.040831737 -0.5137686 -0.55696666 0.35965562 -0.10618582 -0.44203308 -0.12695141 -0.10413148 -0.032463957 0.18561535 0.26579475 0.20153968 0.04275197 0.03747028 0.058566965 -0.24280852 -0.051723447 0.075418904 -0.047995362 -0.23405895 0.008997162 -0.13208024 -0.11109109 0.22547252 0.15371464 -0.18829237 -0.2769458 0.18290034 0.07549691 0.2631958 0.21550654 -0.222045 -0.33848903 0.30336797 -0.36170128 -0.39054736 0.1681313 0.34965697 0.23111735 -0.30236825 -0.6967073 -0.28926513 0.19977559 -0.14797036 0.0031558229 -0.16084555 0.4022994 -0.024961315 -0.3296189 -0.018776108 -0.043524034 0.1410394 0.44165337 -0.0035042558 -0.23296627 -0.1245511 -0.09160867 0.20953259 0.033549763 0.00091609964 0.32918265 -0.10649394 -0.03679629 0.061620798 -0.5269555
信 -0.027160242 -0.28405732 -0.2256698 -0.15651745 0.16325891 -0.37698266 0.30036932 0.0755414 -0.11685205 0.15730871 0.025188845 -0.0074509326 -0.06192582 -0.062414445 0.12002922 -0.043296598 -0.12763447 -0.03209409 -0.14730687 -0.027580397 0.13642727 0.01904451 0.10854804 -0.31863096 -0.71378475 0.24755937 0.0810288 0.048052814 0.092415445 0.5689292 0.018096317 -0.07084758 0.18631385 0.18128921 0.07269913 0.13529944 0.24276212 0.46247137 -0.24963373 0.014169726 -0.017689312 -0.116391756 0.21917722 -0.49481767 0.062831126 0.22753894 0.0014360938 0.43560207 0.33479032 0.46450832 -0.19701917 -0.042471956 -0.6784231 -0.10810933 0.430942 0.15383351 -0.24197951 -0.23379369 0.25827265 0.5260891 0.27184665 0.3051305 -0.14185391 0.07322188 0.0037827743 0.06645204 0.33616644 0.22174066 0.007978076 0.79830045 -0.03961268 -0.13858347 0.27134317 -0.11584265 -0.042186 -0.93523484 0.08875414 -0.36277083 -0.013063881 -0.18214577 0.079998784 0.40824988 0.0052062506 -0.05457545 -0.04889238 -0.014361529 -0.13919848 -0.034067642 -0.111377046 0.0029343166 -0.26407263 -0.08175845 0.10835116 0.21751146 0.004396649 -0.22763215 0.034122385 -0.19327874 0.03708163 -0.12683858
死 0.53448385 -0.11786796 -0.25212517 -0.20765698 -0.50031495 -0.0026622321 -0.0024789246 -0.35771823 -0.19696261 -0.52980906 0.23528753 -0.5043901 0.1859113 -0.13671094 0.05216258 0.08340499 -0.27855697 -0.14463542 -0.24020948 -0.43323284 0.29070327 -0.13587694 -0.44626692 -0.29903433 -0.19019875 0.36892623 0.08126743 0.28390002 -0.007433472 0.1415382 -0.15427169 -0.22686133 0.297267 0.14583865 -0.028147511 -0.07023708 0.26034206 0.010080183 0.22215022 -0.074619 -0.4529347 0.0752496 0.27775156 -0.12235665 0.062417593 0.3720924 0.093291044 -0.22291948 -0.3855861 -0.2604504 0.2830904 -0.20856814 -0.17077683 -0.013674507 -0.02447968 0.57321507 -0.2830047 0.013665552 0.34512997 -0.08616357 -0.2712957 0.19498278 -0.10021785 -0.2393277 -0.050248913 -0.059234332 -0.5999824 -0.0024434852 -0.043360148 -0.07123557 -0.22659521 -0.4769546 -0.1732834 0.2288902 -0.1467097 -0.48123014 0.0076405723 0.05240019 0.31870723 -0.413787 0.0279606 -0.29966214 0.020678725 0.15229279 -0.04452326 -0.36982703 0.041697904 -0.3591325 -0.40384635 0.19000064 0.41514018 0.6222048 -0.106658585 0.36704552 -0.17968191 -0.37644848 -0.06694805 0.15826188 -0.2327057 0.19864868
然 0.07367589 0.1734441 -0.0616326 0.18222627 -0.14629576 0.03173182 0.22978814 0.035426646 -0.03285353 0.41863814 -0.08945997 -0.065818936 0.5266377 -0.14088997 0.3934804 0.14218192 -0.23146124 0.20657901 -0.19885935 -0.068538025 0.021226782 -0.24066067 0.2560598 -0.08258987 -0.14370929 0.07236898 0.2220691 -0.10432454 -0.12780032 -0.03821317 -0.47825095 0.12949243 -0.5373 0.33088478 -0.23979288 -0.29097193 -0.21383183 0.13183475 0.22615793 -0.43843642 -0.23787709 0.024998706 -0.29279193 0.10299657 -0.40866077 -0.10037879 0.07808439 -0.10179613 -0.18648377 0.0111232195 -0.07192306 -0.479409 0.0065983646 -0.13862993 0.104975335 0.03349381 -0.14251167 0.6822324 -0.05925075 -0.02864055 -0.00730374 0.114435524 -0.030358344 -0.017498443 0.0877137 -0.1404791 -0.05498095 0.042766817 0.066045925 0.007914669 -0.32181972 -0.21364018 -0.047039304 0.13147476 -0.27450117 -0.357437 0.0142137585 0.029565103 0.07851793 -0.2137644 0.26110226 -0.44415092 0.2286907 -0.3490147 -0.27341515 -0.11496179 0.057181194 -0.11133241 -0.07861477 -0.20320097 0.09050699 0.21817893 0.3360604 0.19190153 0.01838338 0.07560797 -0.06880681 0.12732999 0.0068372926 0.0030530966
《 -0.060742956 0.2768997 0.062782004 0.14588816 0.5434555 0.13272433 0.39877573 0.45792755 0.69405985 -0.13565335 -0.048454702 0.46682325 0.3145836 0.27040285 0.17959546 -0.12047446 -0.18759449 0.38571373 -0.49560106 0.06195415 0.41476643 -0.14945379 0.1128738 0.3215805 -0.17330047 -0.08719851 0.1784032 -0.103315294 -0.06396953 0.124206126 -0.015481 0.13899308 0.15784907 -0.027225954 0.12982467 0.010667298 0.18472277 -0.15429112 -0.34321386 -0.07892153 0.13566646 0.05489568 -0.49306726 0.16248992 0.0934491 -0.006711281 0.03245867 -0.12892233 -0.052208625 0.17195499 -0.23402296 -0.05332264 -0.61579806 -0.1026111 -0.118043244 -0.057586245 0.1955145 0.75342613 -0.255535 0.065849364 -0.040449012 0.046712972 -0.108089745 -0.012224263 -0.033468284 -0.57162946 -0.36637753 0.25840357 0.26005423 -0.0719023 -0.52637255 0.15872017 -0.22645551 0.0050117746 -0.09488576 -0.5019985 0.13122134 -0.30974585 -0.56374526 -0.31292808 -0.04892973 0.2712252 -0.036126763 0.008625881 0.1356544 0.01173601 0.22143053 -0.12298165 -0.05705405 0.005412692 0.21932796 -0.34878007 -0.46150783 0.0600683 -0.11984839 0.14849909 0.13579294 -0.012537152 -0.51859087 0.019122425
